{"learner":{"attributes":{},"feature_names":[],"feature_types":[],"gradient_booster":{"model":{"cats":{"enc":[],"feature_segments":[],"sorted_idx":[]},"gbtree_model_param":{"num_parallel_tree":"1","num_trees":"2100"},"iteration_indptr":[0,7,14,21,28,35,42,49,56,63,70,77,84,91,98,105,112,119,126,133,140,147,154,161,168,175,182,189,196,203,210,217,224,231,238,245,252,259,266,273,280,287,294,301,308,315,322,329,336,343,350,357,364,371,378,385,392,399,406,413,420,427,434,441,448,455,462,469,476,483,490,497,504,511,518,525,532,539,546,553,560,567,574,581,588,595,602,609,616,623,630,637,644,651,658,665,672,679,686,693,700,707,714,721,728,735,742,749,756,763,770,777,784,791,798,805,812,819,826,833,840,847,854,861,868,875,882,889,896,903,910,917,924,931,938,945,952,959,966,973,980,987,994,1001,1008,1015,1022,1029,1036,1043,1050,1057,1064,1071,1078,1085,1092,1099,1106,1113,1120,1127,1134,1141,1148,1155,1162,1169,1176,1183,1190,1197,1204,1211,1218,1225,1232,1239,1246,1253,1260,1267,1274,1281,1288,1295,1302,1309,1316,1323,1330,1337,1344,1351,1358,1365,1372,1379,1386,1393,1400,1407,1414,1421,1428,1435,1442,1449,1456,1463,1470,1477,1484,1491,1498,1505,1512,1519,1526,1533,1540,1547,1554,1561,1568,1575,1582,1589,1596,1603,1610,1617,1624,1631,1638,1645,1652,1659,1666,1673,1680,1687,1694,1701,1708,1715,1722,1729,1736,1743,1750,1757,1764,1771,1778,1785,1792,1799,1806,1813,1820,1827,1834,1841,1848,1855,1862,1869,1876,1883,1890,1897,1904,1911,1918,1925,1932,1939,1946,1953,1960,1967,1974,1981,1988,1995,2002,2009,2016,2023,2030,2037,2044,2051,2058,2065,2072,2079,2086,2093,2100],"tree_info":[0,1,2,3,4,5,6,0,1,2,3,4,5,6,0,1,2,3,4,5,6,0,1,2,3,4,5,6,0,1,2,3,4,5,6,0,1,2,3,4,5,6,0,1,2,3,4,5,6,0,1,2,3,4,5,6,0,1,2,3,4,5,6,0,1,2,3,4,5,6,0,1,2,3,4,5,6,0,1,2,3,4,5,6,0,1,2,3,4,5,6,0,1,2,3,4,5,6,0,1,2,3,4,5,6,0,1,2,3,4,5,6,0,1,2,3,4,5,6,0,1,2,3,4,5,6,0,1,2,3,4,5,6,0,1,2,3,4,5,6,0,1,2,3,4,5,6,0,1,2,3,4,5,6,0,1,2,3,4,5,6,0,1,2,3,4,5,6,0,1,2,3,4,5,6,0,1,2,3,4,5,6,0,1,2,3,4,5,6,0,1,2,3,4,5,6,0,1,2,3,4,5,6,0,1,2,3,4,5,6,0,1,2,3,4,5,6,0,1,2,3,4,5,6,0,1,2,3,4,5,6,0,1,2,3,4,5,6,0,1,2,3,4,5,6,0,1,2,3,4,5,6,0,1,2,3,4,5,6,0,1,2,3,4,5,6,0,1,2,3,4,5,6,0,1,2,3,4,5,6,0,1,2,3,4,5,6,0,1,2,3,4,5,6,0,1,2,3,4,5,6,0,1,2,3,4,5,6,0,1,2,3,4,5,6,0,1,2,3,4,5,6,0,1,2,3,4,5,6,0,1,2,3,4,5,6,0,1,2,3,4,5,6,0,1,2,3,4,5,6,0,1,2,3,4,5,6,0,1,2,3,4,5,6,0,1,2,3,4,5,6,0,1,2,3,4,5,6,0,1,2,3,4,5,6,0,1,2,3,4,5,6,0,1,2,3,4,5,6,0,1,2,3,4,5,6,0,1,2,3,4,5,6,0,1,2,3,4,5,6,0,1,2,3,4,5,6,0,1,2,3,4,5,6,0,1,2,3,4,5,6,0,1,2,3,4,5,6,0,1,2,3,4,5,6,0,1,2,3,4,5,6,0,1,2,3,4,5,6,0,1,2,3,4,5,6,0,1,2,3,4,5,6,0,1,2,3,4,5,6,0,1,2,3,4,5,6,0,1,2,3,4,5,6,0,1,2,3,4,5,6,0,1,2,3,4,5,6,0,1,2,3,4,5,6,0,1,2,3,4,5,6,0,1,2,3,4,5,6,0,1,2,3,4,5,6,0,1,2,3,4,5,6,0,1,2,3,4,5,6,0,1,2,3,4,5,6,0,1,2,3,4,5,6,0,1,2,3,4,5,6,0,1,2,3,4,5,6,0,1,2,3,4,5,6,0,1,2,3,4,5,6,0,1,2,3,4,5,6,0,1,2,3,4,5,6,0,1,2,3,4,5,6,0,1,2,3,4,5,6,0,1,2,3,4,5,6,0,1,2,3,4,5,6,0,1,2,3,4,5,6,0,1,2,3,4,5,6,0,1,2,3,4,5,6,0,1,2,3,4,5,6,0,1,2,3,4,5,6,0,1,2,3,4,5,6,0,1,2,3,4,5,6,0,1,2,3,4,5,6,0,1,2,3,4,5,6,0,1,2,3,4,5,6,0,1,2,3,4,5,6,0,1,2,3,4,5,6,0,1,2,3,4,5,6,0,1,2,3,4,5,6,0,1,2,3,4,5,6,0,1,2,3,4,5,6,0,1,2,3,4,5,6,0,1,2,3,4,5,6,0,1,2,3,4,5,6,0,1,2,3,4,5,6,0,1,2,3,4,5,6,0,1,2,3,4,5,6,0,1,2,3,4,5,6,0,1,2,3,4,5,6,0,1,2,3,4,5,6,0,1,2,3,4,5,6,0,1,2,3,4,5,6,0,1,2,3,4,5,6,0,1,2,3,4,5,6,0,1,2,3,4,5,6,0,1,2,3,4,5,6,0,1,2,3,4,5,6,0,1,2,3,4,5,6,0,1,2,3,4,5,6,0,1,2,3,4,5,6,0,1,2,3,4,5,6,0,1,2,3,4,5,6,0,1,2,3,4,5,6,0,1,2,3,4,5,6,0,1,2,3,4,5,6,0,1,2,3,4,5,6,0,1,2,3,4,5,6,0,1,2,3,4,5,6,0,1,2,3,4,5,6,0,1,2,3,4,5,6,0,1,2,3,4,5,6,0,1,2,3,4,5,6,0,1,2,3,4,5,6,0,1,2,3,4,5,6,0,1,2,3,4,5,6,0,1,2,3,4,5,6,0,1,2,3,4,5,6,0,1,2,3,4,5,6,0,1,2,3,4,5,6,0,1,2,3,4,5,6,0,1,2,3,4,5,6,0,1,2,3,4,5,6,0,1,2,3,4,5,6,0,1,2,3,4,5,6,0,1,2,3,4,5,6,0,1,2,3,4,5,6,0,1,2,3,4,5,6,0,1,2,3,4,5,6,0,1,2,3,4,5,6,0,1,2,3,4,5,6,0,1,2,3,4,5,6,0,1,2,3,4,5,6,0,1,2,3,4,5,6,0,1,2,3,4,5,6,0,1,2,3,4,5,6,0,1,2,3,4,5,6,0,1,2,3,4,5,6,0,1,2,3,4,5,6,0,1,2,3,4,5,6,0,1,2,3,4,5,6,0,1,2,3,4,5,6,0,1,2,3,4,5,6,0,1,2,3,4,5,6,0,1,2,3,4,5,6,0,1,2,3,4,5,6,0,1,2,3,4,5,6,0,1,2,3,4,5,6,0,1,2,3,4,5,6,0,1,2,3,4,5,6,0,1,2,3,4,5,6,0,1,2,3,4,5,6,0,1,2,3,4,5,6,0,1,2,3,4,5,6,0,1,2,3,4,5,6,0,1,2,3,4,5,6,0,1,2,3,4,5,6,0,1,2,3,4,5,6,0,1,2,3,4,5,6,0,1,2,3,4,5,6,0,1,2,3,4,5,6,0,1,2,3,4,5,6,0,1,2,3,4,5,6,0,1,2,3,4,5,6,0,1,2,3,4,5,6,0,1,2,3,4,5,6,0,1,2,3,4,5,6,0,1,2,3,4,5,6,0,1,2,3,4,5,6,0,1,2,3,4,5,6,0,1,2,3,4,5,6,0,1,2,3,4,5,6,0,1,2,3,4,5,6,0,1,2,3,4,5,6,0,1,2,3,4,5,6,0,1,2,3,4,5,6,0,1,2,3,4,5,6,0,1,2,3,4,5,6,0,1,2,3,4,5,6,0,1,2,3,4,5,6,0,1,2,3,4,5,6,0,1,2,3,4,5,6,0,1,2,3,4,5,6,0,1,2,3,4,5,6,0,1,2,3,4,5,6,0,1,2,3,4,5,6,0,1,2,3,4,5,6,0,1,2,3,4,5,6,0,1,2,3,4,5,6,0,1,2,3,4,5,6,0,1,2,3,4,5,6,0,1,2,3,4,5,6,0,1,2,3,4,5,6,0,1,2,3,4,5,6,0,1,2,3,4,5,6,0,1,2,3,4,5,6,0,1,2,3,4,5,6,0,1,2,3,4,5,6,0,1,2,3,4,5,6,0,1,2,3,4,5,6,0,1,2,3,4,5,6,0,1,2,3,4,5,6,0,1,2,3,4,5,6,0,1,2,3,4,5,6,0,1,2,3,4,5,6,0,1,2,3,4,5,6,0,1,2,3,4,5,6,0,1,2,3,4,5,6,0,1,2,3,4,5,6,0,1,2,3,4,5,6,0,1,2,3,4,5,6,0,1,2,3,4,5,6,0,1,2,3,4,5,6,0,1,2,3,4,5,6,0,1,2,3,4,5,6,0,1,2,3,4,5,6,0,1,2,3,4,5,6,0,1,2,3,4,5,6,0,1,2,3,4,5,6,0,1,2,3,4,5,6,0,1,2,3,4,5,6,0,1,2,3,4,5,6,0,1,2,3,4,5,6,0,1,2,3,4,5,6,0,1,2,3,4,5,6,0,1,2,3,4,5,6,0,1,2,3,4,5,6,0,1,2,3,4,5,6,0,1,2,3,4,5,6,0,1,2,3,4,5,6,0,1,2,3,4,5,6,0,1,2,3,4,5,6,0,1,2,3,4,5,6,0,1,2,3,4,5,6,0,1,2,3,4,5,6,0,1,2,3,4,5,6,0,1,2,3,4,5,6,0,1,2,3,4,5,6,0,1,2,3,4,5,6,0,1,2,3,4,5,6,0,1,2,3,4,5,6,0,1,2,3,4,5,6,0,1,2,3,4,5,6,0,1,2,3,4,5,6,0,1,2,3,4,5,6,0,1,2,3,4,5,6,0,1,2,3,4,5,6,0,1,2,3,4,5,6,0,1,2,3,4,5,6,0,1,2,3,4,5,6,0,1,2,3,4,5,6,0,1,2,3,4,5,6,0,1,2,3,4,5,6,0,1,2,3,4,5,6,0,1,2,3,4,5,6,0,1,2,3,4,5,6,0,1,2,3,4,5,6,0,1,2,3,4,5,6,0,1,2,3,4,5,6,0,1,2,3,4,5,6,0,1,2,3,4,5,6,0,1,2,3,4,5,6,0,1,2,3,4,5,6,0,1,2,3,4,5,6,0,1,2,3,4,5,6,0,1,2,3,4,5,6,0,1,2,3,4,5,6,0,1,2,3,4,5,6,0,1,2,3,4,5,6,0,1,2,3,4,5,6,0,1,2,3,4,5,6,0,1,2,3,4,5,6,0,1,2,3,4,5,6,0,1,2,3,4,5,6],"trees":[{"base_weights":[-1.0750359E-1,1.3510439E0,-5.6833185E-2,2.9426536E-1,-5.070762E-2],"categories":[],"categories_nodes":[],"categories_segments":[],"categories_sizes":[],"default_left":[0,0,0,0,0],"id":0,"left_children":[1,3,-1,-1,-1],"loss_changes":[4.2814526E1,4.678611E1,0E0,0E0,0E0],"parents":[2147483647,0,0,1,1],"right_children":[2,4,-1,-1,-1],"split_conditions":[-8.452092E-1,-3.1908807E-1,-5.6833185E-2,2.9426536E-1,-5.070762E-2],"split_indices":[2049,2048,0,0,0],"split_type":[0,0,0,0,0],"sum_hessian":[6.155645E1,1.4315454E1,4.7240997E1,7.396318E0,6.919136E0],"tree_param":{"num_deleted":"0","num_feature":"2050","num_nodes":"5","size_leaf_vector":"1"}},{"base_weights":[-1.2166891E-1,4.5357293E-1,-5.369174E-1,1.639225E0,-8.393201E-2,1.4176401E-2,-5.6365587E-2,2.7491137E-1,-1.9384462E-1,7.5366455E-1,-5.3582318E-2,-3.801751E-2,1.4176401E-2,-4.3824755E-2,1.7613788E0,1.4176401E-2,2.3760453E-1],"categories":[],"categories_nodes":[],"categories_segments":[],"categories_sizes":[],"default_left":[0,0,0,0,0,0,0,0,0,0,0,0,0,0,0,0,0],"id":1,"left_children":[1,3,5,7,9,-1,-1,-1,11,13,-1,-1,-1,-1,15,-1,-1],"loss_changes":[1.513851E1,1.7143192E1,7.453966E-1,1.7566343E1,7.713398E0,0E0,0E0,0E0,3.0976E-1,9.399719E0,0E0,0E0,0E0,0E0,3.7364502E0,0E0,0E0],"parents":[2147483647,0,0,1,1,2,2,3,3,4,4,8,8,9,9,14,14],"right_children":[2,4,6,8,10,-1,-1,-1,12,14,-1,-1,-1,-1,16,-1,-1],"split_conditions":[-3.0159032E-1,-5.8125544E-1,-1.8017178E0,4.1746062E-1,-7.633981E-1,1.4176401E-2,-5.6365587E-2,2.7491137E-1,4.6235737E-1,5.274987E-2,-5.3582318E-2,-3.801751E-2,1.4176401E-2,-4.3824755E-2,-2.5105998E-1,1.4176401E-2,2.3760453E-1],"split_indices":[2049,1326,6,254,506,0,0,0,0,903,0,0,0,0,107,0,0],"split_type":[0,0,0,0,0,0,0,0,0,0,0,0,0,0,0,0,0],"sum_hessian":[6.135645E1,2.5684095E1,3.5672356E1,7.3722863E0,1.8311808E1,1.1890785E0,3.4483276E1,4.2806826E0,3.091604E0,6.183208E0,1.21286E1,1.9025255E0,1.1890785E0,3.091604E0,3.091604E0,1.1890785E0,1.9025255E0],"tree_param":{"num_deleted":"0","num_feature":"2050","num_nodes":"17","size_leaf_vector":"1"}},{"base_weights":[1.0618616E-1,1.4828606E0,-7.050485E-2,-1.3474418E-1,2.3193073E0,5.014454E-1,-3.4937218E-1,2.0483334E-2,-3.525342E-2,2.5484943E-1,7.035911E-2,-3.719121E-2,1.4885192E0,7.9478526E-1,-4.8860854E-1,-4.4906953E-1,1.4332254E0,2.3193073E0,-3.9157502E-2,-3.9157502E-2,1.8010917E-1,7.035911E-2,-5.419203E-1,2.0483334E-2,-5.3079583E-2,1.889597E-1,2.0483334E-2,7.035911E-2,2.5484943E-1,2.0483334E-2,-5.6947708E-2],"categories":[],"categories_nodes":[],"categories_segments":[],"categories_sizes":[],"default_left":[0,0,0,0,0,0,0,0,0,0,0,0,0,0,0,0,0,0,0,0,0,0,0,0,0,0,0,0,0,0,0],"id":2,"left_children":[1,3,5,7,9,11,13,-1,-1,-1,-1,15,17,19,21,23,25,27,-1,-1,-1,-1,29,-1,-1,-1,-1,-1,-1,-1,-1],"loss_changes":[1.6115313E1,1.0504122E1,9.631668E0,3.319798E-1,6.578636E-2,1.0605579E1,6.831645E0,0E0,0E0,0E0,0E0,9.009531E0,1.1888584E1,6.3983116E0,2.7124062E0,7.2609186E-1,1.4411907E0,6.578636E-2,0E0,0E0,0E0,0E0,8.5070705E-1,0E0,0E0,0E0,0E0,0E0,0E0,0E0,0E0],"parents":[2147483647,0,0,1,1,2,2,3,3,4,4,5,5,6,6,11,11,12,12,13,13,14,14,15,15,16,16,17,17,22,22],"right_children":[2,4,6,8,10,12,14,-1,-1,-1,-1,16,18,20,22,24,26,28,-1,-1,-1,-1,30,-1,-1,-1,-1,-1,-1,-1,-1],"split_conditions":[-1.1934488E0,-1.3405767E-1,-4.9209264E-1,-3.0303618E-1,4.91479E-1,1.4772022E-1,-1.0240947E0,2.0483334E-2,-3.525342E-2,2.5484943E-1,7.035911E-2,1.0943124E0,1.8460467E-2,-3.9641178E-1,-1.463366E0,-1.1618303E0,-5.73768E-1,-1.0719032E0,-3.9157502E-2,-3.9157502E-2,1.8010917E-1,7.035911E-2,-1.8058329E0,2.0483334E-2,-5.3079583E-2,1.889597E-1,2.0483334E-2,7.035911E-2,2.5484943E-1,2.0483334E-2,-5.6947708E-2],"split_indices":[222,344,1144,0,19,64,1577,0,0,0,0,1160,484,415,1499,0,4,26,0,0,0,0,98,0,0,0,0,0,0,0,0],"split_type":[0,0,0,0,0,0,0,0,0,0,0,0,0,0,0,0,0,0,0,0,0,0,0,0,0,0,0,0,0,0,0],"sum_hessian":[6.482128E1,6.5323777E0,5.8288906E1,2.5124528E0,4.0199246E0,1.8843397E1,3.944551E1,1.0049812E0,1.5074718E0,3.0149436E0,1.0049812E0,1.281351E1,6.029887E0,3.7686794E0,3.567683E1,1.0552302E1,2.2612076E0,4.0199246E0,2.0099623E0,2.0099623E0,1.7587171E0,1.0049812E0,3.467185E1,1.0049812E0,9.547321E0,1.2562264E0,1.0049812E0,1.0049812E0,3.0149436E0,1.0049812E0,3.366687E1],"tree_param":{"num_deleted":"0","num_feature":"2050","num_nodes":"31","size_leaf_vector":"1"}},{"base_weights":[1.5595518E-1,-1.4287364E-1,7.054413E-1,-2.6226243E-1,1.41424E0,1.4796082E0,3.7779473E-2,1.11032E0,-3.7015855E-1,1.8710747E-1,1.9895611E-2,1.9881582E0,-1.400077E-1,1.41424E0,-3.616341E-1,-2.9660169E-2,1.8710747E-1,-4.6610597E-1,1.0615575E-1,-3.2923244E-2,2.4493432E0,1.9895611E-2,-3.5529073E-2,1.9895611E-2,1.8710747E-1,6.945139E-2,-5.3152896E-2,-5.440137E-1,8.3193846E-2,2.792841E-1,1.9895611E-2,-5.7122823E-2,1.9895611E-2],"categories":[],"categories_nodes":[],"categories_segments":[],"categories_sizes":[],"default_left":[0,0,0,0,0,0,0,0,0,0,0,0,0,0,0,0,0,0,0,0,0,0,0,0,0,0,0,0,0,0,0,0,0],"id":3,"left_children":[1,3,5,7,9,11,13,15,17,-1,-1,19,21,23,25,-1,-1,27,-1,-1,29,-1,-1,-1,-1,-1,-1,31,-1,-1,-1,-1,-1],"loss_changes":[1.1045916E1,8.551973E0,1.2167786E1,6.5891476E0,1.4544802E0,9.27663E0,8.056633E0,4.076686E0,5.910834E0,0E0,0E0,9.76247E0,3.2936394E-1,1.4544802E0,2.420761E0,0E0,0E0,4.2595806E0,0E0,0E0,4.938511E0,0E0,0E0,0E0,0E0,0E0,0E0,8.439493E-1,0E0,0E0,0E0,0E0,0E0],"parents":[2147483647,0,0,1,1,2,2,3,3,4,4,5,5,6,6,7,7,8,8,11,11,12,12,13,13,14,14,17,17,20,20,27,27],"right_children":[2,4,6,8,10,12,14,16,18,-1,-1,20,22,24,26,-1,-1,28,-1,-1,30,-1,-1,-1,-1,-1,-1,32,-1,-1,-1,-1,-1],"split_conditions":[4.120724E-1,1.4833143E0,7.918024E-2,-1.1924297E0,3.377608E-1,2.4522206E-1,-8.25798E-1,-4.82323E-1,1.9240757E0,1.8710747E-1,1.9895611E-2,-1.5265722E0,-5.0280625E-1,2.1756367E-1,-1.510757E0,-2.9660169E-2,1.8710747E-1,1.8857588E0,1.0615575E-1,-3.2923244E-2,9.964626E-1,1.9895611E-2,-3.5529073E-2,1.9895611E-2,1.8710747E-1,6.945139E-2,-5.3152896E-2,2.148474E0,8.3193846E-2,2.792841E-1,1.9895611E-2,-5.7122823E-2,1.9895611E-2],"split_indices":[2018,235,419,2024,26,1785,1552,90,1021,0,0,285,0,0,68,0,0,936,0,0,1912,0,0,0,0,0,0,0,0,0,0,0,0],"split_type":[0,0,0,0,0,0,0,0,0,0,0,0,0,0,0,0,0,0,0,0,0,0,0,0,0,0,0,0,0,0,0,0,0],"sum_hessian":[6.5656364E1,4.300746E1,2.2648901E1,4.0717125E1,2.2903383E0,9.924799E0,1.2724102E1,2.2903383E0,3.842679E1,1.2724102E0,1.0179281E0,7.379979E0,2.5448203E0,2.2903383E0,1.04337635E1,1.0179281E0,1.2724102E0,3.6645412E1,1.7813742E0,1.2724102E0,6.1075687E0,1.0179281E0,1.5268922E0,1.0179281E0,1.2724102E0,1.0179281E0,9.415835E0,3.511852E1,1.5268922E0,5.0896406E0,1.0179281E0,3.4100594E1,1.0179281E0],"tree_param":{"num_deleted":"0","num_feature":"2050","num_nodes":"33","size_leaf_vector":"1"}},{"base_weights":[1.6817863E-1,-1.2249774E-1,8.866687E-1,-3.594026E-1,6.295786E-1,1.5685492E0,-5.05826E-2,1.2239369E-1,-4.608398E-1,2.1103227E-1,4.565295E-3,1.9896736E0,-1.4132258E-1,-5.4157245E-1,5.910892E-1,-3.99369E-1,1.681765E-1,2.2616417E0,-2.9727405E-2,-3.559827E-2,1.9748572E-2,1.9748572E-2,-5.7050414E-2,-2.9727405E-2,1.1870053E-1,1.9748572E-2,-5.0868094E-2,1.0935462E-2,2.5755548E0,2.8616038E-1,5.4862954E-2],"categories":[],"categories_nodes":[],"categories_segments":[],"categories_sizes":[],"default_left":[0,0,0,0,0,0,0,0,0,0,0,0,0,0,0,0,0,0,0,0,0,0,0,0,0,0,0,0,0,0,0],"id":4,"left_children":[1,3,5,7,9,11,-1,-1,13,-1,15,17,19,21,23,25,-1,27,-1,-1,-1,-1,-1,-1,-1,-1,-1,-1,29,-1,-1],"loss_changes":[1.4073512E1,8.864871E0,1.9196243E1,6.588067E0,1.107556E1,9.825115E0,0E0,0E0,3.3753395E0,0E0,7.056716E0,7.328251E0,3.2870317E-1,8.382311E-1,1.9634634E0,6.4873445E-1,0E0,6.258499E0,0E0,0E0,0E0,0E0,0E0,0E0,0E0,0E0,0E0,0E0,3.302433E0,0E0,0E0],"parents":[2147483647,0,0,1,1,2,2,3,3,4,4,5,5,8,8,10,10,11,11,12,12,13,13,14,14,15,15,17,17,28,28],"right_children":[2,4,6,8,10,12,-1,-1,14,-1,16,18,20,22,24,26,-1,28,-1,-1,-1,-1,-1,-1,-1,-1,-1,-1,30,-1,-1],"split_conditions":[4.9885935E-1,7.373021E-1,3.2687504E-2,-1.7510558E0,-7.90147E-1,5.42382E-1,-5.05826E-2,1.2239369E-1,1.4934467E0,2.1103227E-1,1.7022777E0,3.9433482E-1,5.976663E-1,-1.1955676E0,2.634633E-1,-6.8743587E-1,1.681765E-1,-1.4699806E0,-2.9727405E-2,-3.559827E-2,1.9748572E-2,1.9748572E-2,-5.7050414E-2,-2.9727405E-2,1.1870053E-1,1.9748572E-2,-5.0868094E-2,1.0935462E-2,5.587609E-1,2.8616038E-1,5.4862954E-2],"split_indices":[1002,40,1546,499,83,1515,0,0,1391,0,1332,64,0,35,15,0,0,479,0,0,0,0,0,0,0,0,0,0,291,0,0],"split_type":[0,0,0,0,0,0,0,0,0,0,0,0,0,0,0,0,0,0,0,0,0,0,0,0,0,0,0,0,0,0,0],"sum_hessian":[6.5866295E1,4.7485004E1,1.8381292E1,3.650729E1,1.0977716E1,1.2254194E1,6.127097E0,1.5317743E0,3.4975513E1,2.5529573E0,8.424759E0,9.701238E0,2.5529573E0,3.2933147E1,2.0423658E0,7.403576E0,1.0211829E0,8.680055E0,1.0211829E0,1.5317743E0,1.0211829E0,1.0211829E0,3.1911966E1,1.0211829E0,1.0211829E0,1.0211829E0,6.382393E0,1.2764786E0,7.403576E0,6.127097E0,1.2764786E0],"tree_param":{"num_deleted":"0","num_feature":"2050","num_nodes":"31","size_leaf_vector":"1"}},{"base_weights":[-6.559403E-2,-5.3252506E-1,4.104638E-1,-5.6276858E-2,1.3587566E-2,1.3467546E0,-2.6802747E-2,1.9464972E0,-4.109044E-2,1.9502322E-1,-2.2848226E-1,-3.177135E-2,2.4120395E0,-4.4608495E-1,1.0556824E0,1.3587566E-2,2.9003713E-1,5.894648E-2,-5.48908E-2,1.9502322E-1,-3.177135E-2],"categories":[],"categories_nodes":[],"categories_segments":[],"categories_sizes":[],"default_left":[0,0,0,0,0,0,0,0,0,0,0,0,0,0,0,0,0,0,0,0,0],"id":5,"left_children":[1,3,5,-1,-1,7,9,11,-1,-1,13,-1,15,17,19,-1,-1,-1,-1,-1,-1],"loss_changes":[1.4258029E1,7.2982216E-1,1.3071154E1,0E0,0E0,1.1504911E1,9.490123E0,8.931255E0,0E0,0E0,6.4729238E0,0E0,6.8767586E0,2.3540602E0,4.808153E0,0E0,0E0,0E0,0E0,0E0,0E0],"parents":[2147483647,0,0,1,1,2,2,5,5,6,6,7,7,10,10,12,12,13,13,14,14],"right_children":[2,4,6,-1,-1,8,10,12,-1,-1,14,-1,16,18,20,-1,-1,-1,-1,-1,-1],"split_conditions":[4.389571E-2,1.3624495E0,-5.961179E-1,-5.6276858E-2,1.3587566E-2,2.4727167E-1,-1.0859847E0,-1.6365252E0,-4.109044E-2,1.9502322E-1,1.4138612E0,-3.177135E-2,-1.2348827E0,-1.2979116E0,7.639913E-1,1.3587566E-2,2.9003713E-1,5.894648E-2,-5.48908E-2,1.9502322E-1,-3.177135E-2],"split_indices":[2048,13,810,0,0,242,714,685,0,0,105,0,159,460,2,0,0,0,0,0,0],"split_type":[0,0,0,0,0,0,0,0,0,0,0,0,0,0,0,0,0,0,0,0,0],"sum_hessian":[6.2159332E1,3.1320595E1,3.083874E1,3.0115957E1,1.2046382E0,9.155251E0,2.1683489E1,6.745974E0,2.4092765E0,1.2046382E0,2.0478851E1,1.2046382E0,5.541336E0,1.8069574E1,2.4092765E0,1.2046382E0,4.3366976E0,1.2046382E0,1.6864935E1,1.2046382E0,1.2046382E0],"tree_param":{"num_deleted":"0","num_feature":"2050","num_nodes":"21","size_leaf_vector":"1"}},{"base_weights":[-1.6475962E-1,-4.5092925E-1,1.1442549E0,-5.0699073E-1,7.723696E-2,2.4033356E-2,2.688449E-1,-5.464233E-1,6.0541984E-2,-4.8526827E-2,1.3186724E-1,1.4617885E-2,-5.667155E-2],"categories":[],"categories_nodes":[],"categories_segments":[],"categories_sizes":[],"default_left":[0,0,0,0,0,0,0,0,0,0,0,0,0],"id":6,"left_children":[1,3,5,7,-1,9,-1,11,-1,-1,-1,-1,-1],"loss_changes":[2.3651031E1,3.9164047E0,1.9589918E1,2.5130568E0,0E0,5.6471267E0,0E0,7.6548195E-1,0E0,0E0,0E0,0E0,0E0],"parents":[2147483647,0,0,1,1,2,2,3,3,5,5,7,7],"right_children":[2,4,6,8,-1,10,-1,12,-1,-1,-1,-1,-1],"split_conditions":[1.0602503E0,2.3994508E0,5.559403E-1,2.0238273E0,7.723696E-2,1.0441029E0,2.688449E-1,-1.5529611E0,6.0541984E-2,-4.8526827E-2,1.3186724E-1,1.4617885E-2,-5.667155E-2],"split_indices":[2048,967,2049,74,0,1402,0,55,0,0,0,0,0],"split_type":[0,0,0,0,0,0,0,0,0,0,0,0,0],"sum_hessian":[6.0759315E1,5.0397263E1,1.0362054E1,4.8748756E1,1.6485085E0,6.594034E0,3.7680197E0,4.7571247E1,1.1775062E0,5.181027E0,1.4130074E0,1.1775062E0,4.639374E1],"tree_param":{"num_deleted":"0","num_feature":"2050","num_nodes":"13","size_leaf_vector":"1"}},{"base_weights":[-1.0620102E-1,1.1467059E0,-5.6338865E-2,2.2577477E0,-5.0087977E-2,2.4119723E-1,5.824239E-2],"categories":[],"categories_nodes":[],"categories_segments":[],"categories_sizes":[],"default_left":[0,0,0,0,0,0,0],"id":7,"left_children":[1,3,-1,5,-1,-1,-1],"loss_changes":[3.62959E1,3.2191635E1,0E0,1.2605591E0,0E0,0E0,0E0],"parents":[2147483647,0,0,1,1,3,3],"right_children":[2,4,-1,6,-1,-1,-1],"split_conditions":[-8.452092E-1,-3.1908807E-1,-5.6338865E-2,1.302819E-1,-5.0087977E-2,2.4119723E-1,5.824239E-2],"split_indices":[2049,2048,0,409,0,0,0],"split_type":[0,0,0,0,0,0,0],"sum_hessian":[6.1236412E1,1.596813E1,4.526828E1,9.315756E0,6.652374E0,8.12783E0,1.1879267E0],"tree_param":{"num_deleted":"0","num_feature":"2050","num_nodes":"7","size_leaf_vector":"1"}},{"base_weights":[-1.1741462E-1,4.1885698E-1,-5.3124315E-1,1.3903544E0,-7.8537986E-2,1.5845878E-2,-5.5900823E-2,2.1837632E-1,-1.8863624E-1,6.9204676E-1,-5.298413E-2,-3.7799623E-2,1.5031499E-2,-4.313739E-2,1.529836E0,2.0267706E-1,1.2168389E-2],"categories":[],"categories_nodes":[],"categories_segments":[],"categories_sizes":[],"default_left":[0,0,0,0,0,0,0,0,0,0,0,0,0,0,0,0,0],"id":8,"left_children":[1,3,5,7,9,-1,-1,-1,11,13,-1,-1,-1,-1,15,-1,-1],"loss_changes":[1.3929649E1,1.33791485E1,7.646246E-1,1.2128614E1,7.01221E0,0E0,0E0,0E0,3.16652E-1,7.7109175E0,0E0,0E0,0E0,0E0,2.910181E0,0E0,0E0],"parents":[2147483647,0,0,1,1,2,2,3,3,4,4,8,8,9,9,14,14],"right_children":[2,4,6,8,10,-1,-1,-1,12,14,-1,-1,-1,-1,16,-1,-1],"split_conditions":[-3.0159032E-1,-5.8125544E-1,-1.8585877E0,4.1746062E-1,-7.633981E-1,1.5845878E-2,-5.5900823E-2,2.1837632E-1,5.9788054E-1,-3.7098414E-1,-5.298413E-2,-3.7799623E-2,1.5031499E-2,-4.313739E-2,5.399319E-1,2.0267706E-1,1.2168389E-2],"split_indices":[2049,1326,1033,254,506,0,0,0,573,1000,0,0,0,0,67,0,0],"split_type":[0,0,0,0,0,0,0,0,0,0,0,0,0,0,0,0,0],"sum_hessian":[6.0764862E1,2.6461636E1,3.4303226E1,8.352502E0,1.8109135E1,1.1453342E0,3.315789E1,5.3042283E0,3.0482733E0,6.4915676E0,1.1617567E1,1.8817903E0,1.1664829E0,2.9802933E0,3.511274E0,2.2706525E0,1.2406217E0],"tree_param":{"num_deleted":"0","num_feature":"2050","num_nodes":"17","size_leaf_vector":"1"}},{"base_weights":[1.02647066E-1,1.289329E0,-6.568453E-2,-1.3189478E-1,1.9286454E0,4.6529096E-1,-3.3969453E-1,-3.5071153E-2,2.0689948E-2,2.119491E-1,6.1385937E-2,-3.31134E-2,1.2920327E0,7.311405E-1,-4.807047E-1,-4.4125575E-1,1.2786472E0,1.922283E0,-3.8405355E-2,1.5901028E-1,-3.8719878E-2,7.039337E-2,-5.3582823E-1,-5.2508205E-2,2.0697528E-2,1.681758E-1,1.791611E-2,6.0592163E-2,2.118855E-1,2.0665584E-2,-5.64299E-2],"categories":[],"categories_nodes":[],"categories_segments":[],"categories_sizes":[],"default_left":[0,0,0,0,0,0,0,0,0,0,0,0,0,0,0,0,0,0,0,0,0,0,0,0,0,0,0,0,0,0,0],"id":9,"left_children":[1,3,5,7,9,11,13,-1,-1,-1,-1,15,17,19,21,23,25,27,-1,-1,-1,-1,29,-1,-1,-1,-1,-1,-1,-1,-1],"loss_changes":[1.326628E1,7.746911E0,8.704628E0,3.3162194E-1,1.4213943E-1,8.45579E0,6.2894754E0,0E0,0E0,0E0,0E0,7.90602E0,8.876638E0,5.3923426E0,2.6857529E0,7.174032E-1,1.254715E0,2.0799828E-1,0E0,0E0,0E0,0E0,8.4270763E-1,0E0,0E0,0E0,0E0,0E0,0E0,0E0,0E0],"parents":[2147483647,0,0,1,1,2,2,3,3,4,4,5,5,6,6,11,11,12,12,13,13,14,14,15,15,16,16,17,17,22,22],"right_children":[2,4,6,8,10,12,14,-1,-1,-1,-1,16,18,20,22,24,26,28,-1,-1,-1,-1,30,-1,-1,-1,-1,-1,-1,-1,-1],"split_conditions":[-1.1934488E0,-1.3405767E-1,-4.9209264E-1,7.5734055E-1,8.432426E-1,1.4772022E-1,-1.0240947E0,-3.5071153E-2,2.0689948E-2,2.119491E-1,6.1385937E-2,1.0943124E0,1.8460467E-2,6.3073003E-1,-1.5301337E0,1.1614081E0,-6.87755E-1,-5.289912E-1,-3.8405355E-2,1.5901028E-1,-3.8719878E-2,7.039337E-2,-1.7124888E0,-5.2508205E-2,2.0697528E-2,1.681758E-1,1.791611E-2,6.0592163E-2,2.118855E-1,2.0665584E-2,-5.64299E-2],"split_indices":[222,344,1144,576,21,64,1577,0,0,0,0,1160,484,1062,2021,479,25,816,0,0,0,0,337,0,0,0,0,0,0,0,0],"split_type":[0,0,0,0,0,0,0,0,0,0,0,0,0,0,0,0,0,0,0,0,0,0,0,0,0,0,0,0,0,0,0],"sum_hessian":[6.498844E1,7.2461343E0,5.774231E1,2.4944882E0,4.751646E0,1.9417355E1,3.8324955E1,1.4942336E0,1.0002546E0,3.6148906E0,1.1367556E0,1.271314E1,6.7042165E0,3.9725182E0,3.4352436E1,1.0202378E1,2.5107613E0,4.7654138E0,1.9388026E0,2.0082214E0,1.9642967E0,1.0040781E0,3.334836E1,9.202349E0,1.0000294E0,1.4496737E0,1.0610875E0,1.1495813E0,3.6158326E0,1.0004053E0,3.2347954E1],"tree_param":{"num_deleted":"0","num_feature":"2050","num_nodes":"31","size_leaf_vector":"1"}},{"base_weights":[1.488667E-1,7.5161034E-1,-8.752724E-2,-2.5453332E-1,1.3304054E0,-3.199929E-1,5.1727206E-1,-4.972801E-2,6.463545E-2,-1.6680995E-2,1.8796037E0,-4.465913E-1,8.326831E-1,1.7696536E-1,1.0281604E-2,-4.171675E-2,6.7275956E-2,2.1745288E0,1.0364546E-2,-5.3256583E-1,4.6602213E-1,1.6938744E-1,-3.4887698E-2,-4.1013125E-1,1.2805958E-1,2.3514548E-1,6.2390696E-2,-5.642101E-2,1.9723933E-2,1.0845883E-1,-3.2623332E-2,-5.1224906E-2,1.9494794E-2],"categories":[],"categories_nodes":[],"categories_segments":[],"categories_sizes":[],"default_left":[0,0,0,0,0,0,0,0,0,0,0,0,0,0,0,0,0,0,0,0,0,0,0,0,0,0,0,0,0,0,0,0,0],"id":10,"left_children":[1,3,5,7,9,11,13,-1,-1,15,17,19,21,-1,23,-1,-1,25,-1,27,29,-1,-1,31,-1,-1,-1,-1,-1,-1,-1,-1,-1],"loss_changes":[9.623499E0,1.1403938E1,7.0655985E0,2.0224392E0,9.07399E0,5.6353226E0,8.876465E0,0E0,0E0,1.531755E0,4.3270836E0,2.8492322E0,4.5782576E0,0E0,6.387873E0,0E0,0E0,5.6409836E-1,0E0,8.217335E-1,2.0138931E0,0E0,0E0,6.5629756E-1,0E0,0E0,0E0,0E0,0E0,0E0,0E0,0E0,0E0],"parents":[2147483647,0,0,1,1,2,2,3,3,4,4,5,5,6,6,9,9,10,10,11,11,12,12,14,14,17,17,19,19,20,20,23,23],"right_children":[2,4,6,8,10,12,14,-1,-1,16,18,20,22,-1,24,-1,-1,26,-1,28,30,-1,-1,32,-1,-1,-1,-1,-1,-1,-1,-1,-1],"split_conditions":[-5.991031E-1,-4.6495122E-1,6.294788E-1,9.9041444E-1,-3.351619E-1,9.7379655E-1,-8.441827E-1,-4.972801E-2,6.463545E-2,5.05381E-1,1.145191E0,1.4639629E0,3.3519004E-2,1.7696536E-1,7.2229207E-1,-4.171675E-2,6.7275956E-2,5.156381E-1,1.0364546E-2,2.4946823E0,1.7373648E-1,1.6938744E-1,-3.4887698E-2,1.7356561E0,1.2805958E-1,2.3514548E-1,6.2390696E-2,-5.642101E-2,1.9723933E-2,1.0845883E-1,-3.2623332E-2,-5.1224906E-2,1.9494794E-2],"split_indices":[425,2033,185,1110,114,1310,2021,0,0,225,1580,1472,163,0,1337,0,0,70,0,1043,46,0,0,1153,0,0,0,0,0,0,0,0,0],"split_type":[0,0,0,0,0,0,0,0,0,0,0,0,0,0,0,0,0,0,0,0,0,0,0,0,0,0,0,0,0,0,0,0,0],"sum_hessian":[6.607875E1,1.8001099E1,4.8077652E1,6.778311E0,1.1222788E1,3.5069107E1,1.3008542E1,5.6924696E0,1.0858412E0,3.5311441E0,7.6916437E0,3.2150574E1,2.918536E0,3.0309358E0,9.977606E0,2.483457E0,1.0476872E0,6.403774E0,1.2878702E0,2.9763119E1,2.3874545E0,1.4373314E0,1.4812045E0,8.00536E0,1.9722468E0,5.2843685E0,1.1194053E0,2.8743696E1,1.0194212E0,1.1334821E0,1.2539723E0,6.9806666E0,1.0246929E0],"tree_param":{"num_deleted":"0","num_feature":"2050","num_nodes":"33","size_leaf_vector":"1"}},{"base_weights":[1.573136E-1,-2.2654861E-1,6.203308E-1,1.2847812E-1,-3.2188186E-1,1.085805E0,-4.2998955E-1,-4.7153428E-1,5.8628815E-1,-4.3509115E-2,1.3471857E0,2.0689936E-2,-5.216954E-2,-5.6368113E-2,3.3852544E-1,1.7222863E-1,-4.2929154E-2,-2.0174557E-1,1.6653973E0,1.08992554E-1,-3.7053194E-2,-3.9621696E-2,1.8823236E-2,2.0204828E0,7.266828E-2,2.3013051E-1,-3.242067E-2,6.356876E-2,-3.7767768E-2],"categories":[],"categories_nodes":[],"categories_segments":[],"categories_sizes":[],"default_left":[0,0,0,0,0,0,0,0,0,0,0,0,0,0,0,0,0,0,0,0,0,0,0,0,0,0,0,0,0],"id":11,"left_children":[1,3,5,-1,7,9,11,13,15,-1,17,-1,-1,-1,19,-1,-1,21,23,-1,-1,-1,-1,25,27,-1,-1,-1,-1],"loss_changes":[1.2147318E1,5.840576E0,1.5567794E1,0E0,5.200663E0,9.207163E0,7.037662E-1,2.55406E0,7.1671815E0,0E0,9.577641E0,0E0,0E0,0E0,2.4595356E0,0E0,0E0,3.8457173E-1,8.711201E0,0E0,0E0,0E0,0E0,9.154369E0,1.2270625E0,0E0,0E0,0E0,0E0],"parents":[2147483647,0,0,1,1,2,2,4,4,5,5,6,6,7,7,8,8,10,10,14,14,17,17,18,18,23,23,24,24],"right_children":[2,4,6,-1,8,10,12,14,16,-1,18,-1,-1,-1,20,-1,-1,22,24,-1,-1,-1,-1,26,28,-1,-1,-1,-1],"split_conditions":[1.0173194E-1,-2.305562E0,2.4921836E-1,1.2847812E-1,1.0844568E0,-1.1756597E0,-9.240058E-1,1.1067737E0,-6.4561255E-2,-4.3509115E-2,-1.0203408E0,2.0689936E-2,-5.216954E-2,-5.6368113E-2,-6.734671E-2,1.7222863E-1,-4.2929154E-2,7.871889E-1,7.605015E-1,1.08992554E-1,-3.7053194E-2,-3.9621696E-2,1.8823236E-2,1.3309332E0,-8.271606E-1,2.3013051E-1,-3.242067E-2,6.356876E-2,-3.7767768E-2],"split_indices":[444,517,1275,0,791,860,276,1391,1344,0,1013,0,0,0,1372,0,0,594,1737,0,0,0,0,1569,21,0,0,0,0],"split_type":[0,0,0,0,0,0,0,0,0,0,0,0,0,0,0,0,0,0,0,0,0,0,0,0,0,0,0,0,0],"sum_hessian":[6.6554474E1,3.6666775E1,2.9887701E1,1.4353445E0,3.523143E1,2.0686296E1,9.201405E0,3.0659933E1,4.571498E0,2.9362934E0,1.7750004E1,1.0000474E0,8.201358E0,2.7801565E1,2.8583672E0,1.8293616E0,2.7421365E0,3.0874567E0,1.4662547E1,1.1269608E0,1.7314066E0,2.049452E0,1.0380045E0,1.1769966E1,2.8925803E0,1.0527586E1,1.2423809E0,1.1025838E0,1.7899966E0],"tree_param":{"num_deleted":"0","num_feature":"2050","num_nodes":"29","size_leaf_vector":"1"}},{"base_weights":[-6.2376693E-2,-5.26259E-1,3.8082227E-1,-5.57737E-2,1.5500915E-2,-4.3564126E-1,7.636327E-1,2.0666871E-2,-5.2008685E-2,1.3429098E0,1.3461436E-1,1.7936199E0,-1.4631432E-1,1.6676669E-1,-2.3872407E-1,2.2296402E0,-3.37254E-2,-3.5820503E-2,2.0557977E-2,6.927996E-2,-5.1120665E-2,6.521268E-2,2.3897424E-1],"categories":[],"categories_nodes":[],"categories_segments":[],"categories_sizes":[],"default_left":[0,0,0,0,0,0,0,0,0,0,0,0,0,0,0,0,0,0,0,0,0,0,0],"id":12,"left_children":[1,3,5,-1,-1,7,9,-1,-1,11,13,15,17,-1,19,21,-1,-1,-1,-1,-1,-1,-1],"loss_changes":[1.3093181E1,7.5253487E-1,1.05375595E1,0E0,0E0,7.0731735E-1,8.051039E0,0E0,0E0,8.081587E0,7.233184E0,9.130865E0,3.4438628E-1,0E0,3.0137951E0,3.655548E-1,0E0,0E0,0E0,0E0,0E0,0E0,0E0],"parents":[2147483647,0,0,1,1,2,2,5,5,6,6,9,9,10,10,11,11,12,12,14,14,15,15],"right_children":[2,4,6,-1,-1,8,10,-1,-1,12,14,16,18,-1,20,22,-1,-1,-1,-1,-1,-1,-1],"split_conditions":[4.389571E-2,1.686648E0,-3.38338E-1,-5.57737E-2,1.5500915E-2,-1.2682886E0,-4.0121862E-1,2.0666871E-2,-5.2008685E-2,5.649931E-1,-1.4902159E0,9.0726894E-1,3.849896E-1,1.6676669E-1,-1.0597599E0,-9.87379E-1,-3.37254E-2,-3.5820503E-2,2.0557977E-2,6.927996E-2,-5.1120665E-2,6.521268E-2,2.3897424E-1],"split_indices":[2048,885,2049,0,0,613,447,0,0,1683,280,136,500,0,1924,913,0,0,0,0,0,0,0],"split_type":[0,0,0,0,0,0,0,0,0,0,0,0,0,0,0,0,0,0,0,0,0,0,0],"sum_hessian":[6.171041E1,3.0060074E1,3.1650337E1,2.8905807E1,1.1542661E0,1.0058794E1,2.1591543E1,1.0006081E0,9.058186E0,1.0649371E1,1.0942173E1,8.018264E0,2.6311073E0,1.4639206E0,9.478252E0,6.6177807E0,1.4004834E0,1.6310482E0,1.0000591E0,1.7959553E0,7.6822968E0,1.0771942E0,5.5405865E0],"tree_param":{"num_deleted":"0","num_feature":"2050","num_nodes":"23","size_leaf_vector":"1"}},{"base_weights":[-1.5796788E-1,-4.4274345E-1,1.0084612E0,-5.000686E-1,7.032588E-2,2.4860537E-2,2.1455066E-1,-5.409281E-1,7.037882E-2,-4.7901113E-2,1.180779E-1,1.6524762E-2,-5.619785E-2],"categories":[],"categories_nodes":[],"categories_segments":[],"categories_sizes":[],"default_left":[0,0,0,0,0,0,0,0,0,0,0,0,0],"id":13,"left_children":[1,3,5,7,-1,9,-1,11,-1,-1,-1,-1,-1],"loss_changes":[2.066089E1,3.6106968E0,1.3643686E1,2.7333899E0,0E0,4.979471E0,0E0,7.8892994E-1,0E0,0E0,0E0,0E0,0E0],"parents":[2147483647,0,0,1,1,2,2,3,3,5,5,7,7],"right_children":[2,4,6,8,-1,10,-1,12,-1,-1,-1,-1,-1],"split_conditions":[1.0602503E0,2.3994508E0,5.559403E-1,2.0603716E0,7.032588E-2,1.0441029E0,2.1455066E-1,-1.8569956E0,7.037882E-2,-4.7901113E-2,1.180779E-1,1.6524762E-2,-5.619785E-2],"split_indices":[2048,967,2049,74,0,1402,0,413,0,0,0,0,0],"split_type":[0,0,0,0,0,0,0,0,0,0,0,0,0],"sum_hessian":[5.9855495E1,4.8608498E1,1.1246998E1,4.682963E1,1.7788644E0,6.578303E0,4.6686954E0,4.582498E1,1.0046523E0,4.989118E0,1.5891848E0,1.1281686E0,4.469681E1],"tree_param":{"num_deleted":"0","num_feature":"2050","num_nodes":"13","size_leaf_vector":"1"}},{"base_weights":[-1.0391431E-1,1.0067226E0,-5.5853184E-2,1.8549381E0,-4.9422223E-2,1.9732027E-1,5.0919306E-2],"categories":[],"categories_nodes":[],"categories_segments":[],"categories_sizes":[],"default_left":[0,0,0,0,0,0,0],"id":14,"left_children":[1,3,-1,5,-1,-1,-1],"loss_changes":[3.1607897E1,2.410705E1,0E0,8.8101196E-1,0E0,0E0,0E0],"parents":[2147483647,0,0,1,1,3,3],"right_children":[2,4,-1,6,-1,-1,-1],"split_conditions":[-8.452092E-1,-3.1908807E-1,-5.5853184E-2,1.0461277E0,-4.9422223E-2,1.9732027E-1,5.0919306E-2],"split_indices":[2049,2048,0,1040,0,0,0],"split_type":[0,0,0,0,0,0,0],"sum_hessian":[6.0486816E1,1.721526E1,4.3271557E1,1.0848625E1,6.3666344E0,9.543672E0,1.3049538E0],"tree_param":{"num_deleted":"0","num_feature":"2050","num_nodes":"7","size_leaf_vector":"1"}},{"base_weights":[-1.131016E-1,3.8969877E-1,-5.254649E-1,8.038713E-1,-5.1266205E-2,-5.54312E-2,1.7159607E-2,1.3999051E0,7.470522E-3,1.8511429E0,-1.2571628E-1,1.15294896E-1,-4.9407627E-2,5.0400414E-2,2.0285825E-1,1.4902501E-2,-3.2694455E-2],"categories":[],"categories_nodes":[],"categories_segments":[],"categories_sizes":[],"default_left":[0,0,0,0,0,0,0,0,0,0,0,0,0,0,0,0,0],"id":15,"left_children":[1,3,5,7,-1,-1,-1,9,11,13,15,-1,-1,-1,-1,-1,-1],"loss_changes":[1.2838317E1,1.0887765E1,7.768421E-1,9.293871E0,0E0,0E0,0E0,7.9467907E0,5.967571E0,1.0599098E0,2.4190086E-1,0E0,0E0,0E0,0E0,0E0,0E0],"parents":[2147483647,0,0,1,1,2,2,3,3,7,7,8,8,9,9,10,10],"right_children":[2,4,6,8,-1,-1,-1,10,12,14,16,-1,-1,-1,-1,-1,-1],"split_conditions":[-3.0159032E-1,4.0687948E-1,2.3065286E0,-1.646423E-1,-5.1266205E-2,-5.54312E-2,1.7159607E-2,8.5074997E-1,-7.288538E-1,-5.9716135E-1,-3.8219762E-1,1.15294896E-1,-4.9407627E-2,5.0400414E-2,2.0285825E-1,1.4902501E-2,-3.2694455E-2],"split_indices":[2049,2048,1756,1462,0,0,0,584,258,4,585,0,0,0,0,0,0],"split_type":[0,0,0,0,0,0,0,0,0,0,0,0,0,0,0,0,0],"sum_hessian":[5.9932583E1,2.7029768E1,3.2902813E1,1.8601194E1,8.428574E0,3.1791925E1,1.1108865E0,1.0205508E1,8.395687E0,7.711333E0,2.4941752E0,2.1611252E0,6.234562E0,1.3444636E0,6.3668694E0,1.1641538E0,1.3300214E0],"tree_param":{"num_deleted":"0","num_feature":"2050","num_nodes":"17","size_leaf_vector":"1"}},{"base_weights":[9.946001E-2,1.136144E0,-6.0923927E-2,1.5582751E0,-3.728925E-2,4.327619E-1,-3.2976654E-1,8.419589E-3,1.883126E-1,7.878106E-1,-4.8925053E-2,6.736117E-1,-4.7244498E-1,1.6672295E-1,1.6321365E0,-3.798094E-2,1.4002164E-1,6.5273836E-2,-5.2917516E-1,-3.766559E-1,1.432203E-1,1.8062253E-1,5.2264433E-2,2.056598E-2,-5.5869948E-2,2.0665718E-2,-4.9275585E-2],"categories":[],"categories_nodes":[],"categories_segments":[],"categories_sizes":[],"default_left":[0,0,0,0,0,0,0,0,0,0,0,0,0,0,0,0,0,0,0,0,0,0,0,0,0,0,0],"id":16,"left_children":[1,3,5,7,-1,9,11,-1,-1,13,-1,15,17,19,21,-1,-1,-1,23,25,-1,-1,-1,-1,-1,-1,-1],"loss_changes":[1.1026103E1,6.237792E0,7.8432164E0,3.2567024E0,0E0,7.2233458E0,5.7770896E0,0E0,0E0,7.8371506E0,0E0,4.4808908E0,2.5138826E0,7.4320145E0,2.9993248E-1,0E0,0E0,0E0,8.285389E-1,6.3035786E-1,0E0,0E0,0E0,0E0,0E0,0E0,0E0],"parents":[2147483647,0,0,1,1,2,2,3,3,5,5,6,6,9,9,11,11,12,12,13,13,14,14,18,18,19,19],"right_children":[2,4,6,8,-1,10,12,-1,-1,14,-1,16,18,20,22,-1,-1,-1,24,26,-1,-1,-1,-1,-1,-1,-1],"split_conditions":[-1.1934488E0,3.77936E-1,-4.9209264E-1,-4.680941E-1,-3.728925E-2,1.8460467E-2,-1.0240947E0,8.419589E-3,1.883126E-1,1.3376977E-1,-4.8925053E-2,-3.9641178E-1,-1.5301337E0,1.0943124E0,7.316578E-1,-3.798094E-2,1.4002164E-1,6.5273836E-2,-1.7330194E0,-1.1760843E0,1.432203E-1,1.8062253E-1,5.2264433E-2,2.056598E-2,-5.5869948E-2,2.0665718E-2,-4.9275585E-2],"split_indices":[222,1937,1144,1504,0,484,1577,0,0,64,0,415,2021,1160,354,0,0,0,637,301,0,0,0,0,0,0,0],"split_type":[0,0,0,0,0,0,0,0,0,0,0,0,0,0,0,0,0,0,0,0,0,0,0,0,0,0,0],"sum_hessian":[6.489915E1,7.8801045E0,5.701904E1,6.1321073E0,1.7479973E0,1.9888083E1,3.713096E1,1.3347198E0,4.797387E0,1.44638815E1,5.424201E0,4.159353E0,3.2971603E1,9.0235815E0,5.4403E0,1.8926694E0,2.2666833E0,1.0783165E0,3.1893288E1,6.804282E0,2.219299E0,4.1596417E0,1.2806581E0,1.0014834E0,3.0891806E1,1.0000091E0,5.804273E0],"tree_param":{"num_deleted":"0","num_feature":"2050","num_nodes":"27","size_leaf_vector":"1"}},{"base_weights":[1.4202297E-1,-3.470056E-1,3.9625353E-1,3.352058E-1,-5.0039023E-1,7.4937326E-1,-1.326966E-1,1.3204448E-1,-4.1505206E-2,-5.4927934E-2,2.0435972E-2,1.300659E0,1.1082739E-1,6.513954E-1,-4.0581736E-1,-3.6199883E-2,1.5462255E0,-5.106565E-2,9.274703E-1,-3.8116213E-2,1.3609637E-1,5.9468027E-2,-5.368774E-2,-3.402538E-2,1.8135815E0,-3.8159426E-2,1.5972476E-1,1.2040024E-2,2.0107758E-1],"categories":[],"categories_nodes":[],"categories_segments":[],"categories_sizes":[],"default_left":[0,0,0,0,0,0,0,0,0,0,0,0,0,0,0,0,0,0,0,0,0,0,0,0,0,0,0,0,0],"id":17,"left_children":[1,3,5,7,9,11,13,-1,-1,-1,-1,15,17,19,21,-1,23,-1,25,-1,-1,-1,-1,-1,27,-1,-1,-1,-1],"loss_changes":[8.501568E0,2.6314507E0,8.454371E0,4.1853895E0,7.883792E-1,9.351299E0,4.2811193E0,0E0,0E0,0E0,0E0,6.4322224E0,7.371502E0,4.350216E0,2.2241528E0,0E0,7.0334587E0,0E0,6.0704837E0,0E0,0E0,0E0,0E0,0E0,3.5310173E0,0E0,0E0,0E0,0E0],"parents":[2147483647,0,0,1,1,2,2,3,3,4,4,5,5,6,6,11,11,12,12,13,13,14,14,16,16,18,18,24,24],"right_children":[2,4,6,8,10,12,14,-1,-1,-1,-1,16,18,20,22,-1,24,-1,26,-1,-1,-1,-1,-1,28,-1,-1,-1,-1],"split_conditions":[-4.4902733E-1,-9.247137E-1,1.2480909E-2,-5.241245E-1,2.1640737E0,-2.310875E-1,-8.1356966E-1,1.3204448E-1,-4.1505206E-2,-5.4927934E-2,2.0435972E-2,-7.311255E-1,5.6430772E-2,3.8306567E-1,-1.0858809E0,-3.6199883E-2,-1.1571167E0,-5.106565E-2,-7.007855E-1,-3.8116213E-2,1.3609637E-1,5.9468027E-2,-5.368774E-2,-3.402538E-2,-1.2150409E0,-3.8159426E-2,1.5972476E-1,1.2040024E-2,2.0107758E-1],"split_indices":[1618,92,178,554,1794,820,757,0,0,0,0,1655,60,1345,179,0,1828,0,1362,0,0,0,0,0,537,0,0,0,0],"split_type":[0,0,0,0,0,0,0,0,0,0,0,0,0,0,0,0,0,0,0,0,0,0,0,0,0,0,0,0,0],"sum_hessian":[6.627527E1,2.2544525E1,4.3730747E1,3.92075E0,1.8623775E1,2.5974087E1,1.7756659E1,1.3664021E0,2.5543478E0,1.7621933E1,1.0018435E0,1.3383016E1,1.2591072E1,4.2294583E0,1.35272E1,1.6612247E0,1.172179E1,7.362631E0,5.228441E0,1.9111685E0,2.31829E0,1.1570375E0,1.2370162E1,1.421182E0,1.0300609E1,1.915299E0,3.3131423E0,1.2425132E0,9.058095E0],"tree_param":{"num_deleted":"0","num_feature":"2050","num_nodes":"29","size_leaf_vector":"1"}},{"base_weights":[1.4550212E-1,4.382734E-1,-3.6366284E-1,-3.1024548E-1,8.6292183E-1,-5.5173904E-2,4.0980238E-1,-4.7889763E-1,9.296656E-2,1.2890922E-2,1.2086853E0,1.3246374E-1,-4.2296663E-2,-5.4002672E-2,1.7709054E-2,-4.9828246E-2,1.0749803E-1,1.4509267E0,-4.0914845E-2,-1.0254108E-1,1.6864551E0,-3.188828E-2,1.8108977E-2,1.9145916E-1,2.12185E-2],"categories":[],"categories_nodes":[],"categories_segments":[],"categories_sizes":[],"default_left":[0,0,0,0,0,0,0,0,0,0,0,0,0,0,0,0,0,0,0,0,0,0,0,0,0],"id":18,"left_children":[1,3,5,7,9,-1,11,13,-1,15,17,-1,-1,-1,-1,-1,-1,19,-1,21,23,-1,-1,-1,-1],"loss_changes":[1.0305351E1,1.4147771E1,3.9202857E0,3.9043274E0,8.2508545E0,0E0,4.7816525E0,7.060025E-1,0E0,5.499668E0,8.424883E0,0E0,0E0,0E0,0E0,0E0,0E0,6.6125374E0,0E0,2.577715E-1,4.753208E0,0E0,0E0,0E0,0E0],"parents":[2147483647,0,0,1,1,2,2,3,3,4,4,6,6,7,7,9,9,10,10,17,17,19,19,20,20],"right_children":[2,4,6,8,10,-1,12,14,-1,16,18,-1,-1,-1,-1,-1,-1,20,-1,22,24,-1,-1,-1,-1],"split_conditions":[2.4921836E-1,-3.1908807E-1,1.0657557E0,1.6219245E0,-4.4693398E-1,-5.5173904E-2,1.1377902E-1,1.3577721E0,9.296656E-2,3.137073E-1,1.655914E0,1.3246374E-1,-4.2296663E-2,-5.4002672E-2,1.7709054E-2,-4.9828246E-2,1.0749803E-1,-6.794668E-1,-4.0914845E-2,-1.6133116E-1,7.7420974E-1,-3.188828E-2,1.8108977E-2,1.9145916E-1,2.12185E-2],"split_indices":[1275,2048,1265,1647,809,0,1893,1536,0,1004,63,0,0,0,0,0,0,1092,0,0,1827,0,0,0,0],"split_type":[0,0,0,0,0,0,0,0,0,0,0,0,0,0,0,0,0,0,0,0,0,0,0,0,0],"sum_hessian":[6.706228E1,4.266755E1,2.439473E1,1.5541783E1,2.7125767E1,1.9853748E1,4.540982E0,1.4221188E1,1.3205951E0,8.143334E0,1.8982431E1,1.8824177E0,2.6585639E0,1.3170639E1,1.0505491E0,5.855828E0,2.2875066E0,1.6600042E1,2.3823888E0,2.2597985E0,1.4340244E1,1.2114599E0,1.0483387E0,1.2159888E1,2.180356E0],"tree_param":{"num_deleted":"0","num_feature":"2050","num_nodes":"25","size_leaf_vector":"1"}},{"base_weights":[-5.9672292E-2,-5.199875E-1,3.53956E-1,1.6771084E-2,-5.5272013E-2,-4.275416E-1,6.9301987E-1,-5.1422592E-2,2.0561215E-2,9.95305E-1,-2.0001979E-1,1.2545768E0,-4.1269828E-2,-4.756865E-2,6.815731E-2,1.5004649E0,-3.7034504E-2,1.7681603E-1,-5.0970325E-3],"categories":[],"categories_nodes":[],"categories_segments":[],"categories_sizes":[],"default_left":[0,0,0,0,0,0,0,0,0,0,0,0,0,0,0,0,0,0,0],"id":19,"left_children":[1,3,5,-1,-1,7,9,-1,-1,11,13,15,-1,-1,-1,17,-1,-1,-1],"loss_changes":[1.2006599E1,7.633467E-1,9.120112E0,0E0,0E0,6.9269717E-1,6.571492E0,0E0,0E0,7.016979E0,1.9773468E0,6.661743E0,0E0,0E0,0E0,5.685089E0,0E0,0E0,0E0],"parents":[2147483647,0,0,1,1,2,2,5,5,6,6,9,9,10,10,11,11,15,15],"right_children":[2,4,6,-1,-1,8,10,-1,-1,12,14,16,-1,-1,-1,18,-1,-1,-1],"split_conditions":[4.389571E-2,-1.4433287E0,-3.38338E-1,1.6771084E-2,-5.5272013E-2,1.1266325E0,-7.593334E-2,-5.1422592E-2,2.0561215E-2,5.068139E-1,9.0863115E-1,8.850983E-1,-4.1269828E-2,-4.756865E-2,6.815731E-2,1.332141E0,-3.7034504E-2,1.7681603E-1,-5.0970325E-3],"split_indices":[2048,1513,2049,0,0,1806,1020,0,0,1262,1759,995,0,0,0,979,0,0,0],"split_type":[0,0,0,0,0,0,0,0,0,0,0,0,0,0,0,0,0,0,0],"sum_hessian":[6.1093403E1,2.8793165E1,3.2300236E1,1.1208537E0,2.7672312E1,9.694573E0,2.2605663E1,8.6923485E0,1.0022248E0,1.6803373E1,5.8022895E0,1.4282365E1,2.5210083E0,4.7708945E0,1.0313948E0,1.2471702E1,1.8106635E0,1.05172825E1,1.954419E0],"tree_param":{"num_deleted":"0","num_feature":"2050","num_nodes":"19","size_leaf_vector":"1"}},{"base_weights":[-1.5105844E-1,-4.3424174E-1,9.0169126E-1,-4.929964E-1,6.5026484E-2,-4.5103885E-2,1.4693073E0,-5.3523177E-1,6.634504E-2,1.8814647E0,-5.5696396E-3,1.8102119E-2,-5.571982E-2,2.0158093E-1,6.0732197E-2],"categories":[],"categories_nodes":[],"categories_segments":[],"categories_sizes":[],"default_left":[0,0,0,0,0,0,0,0,0,0,0,0,0,0,0],"id":20,"left_children":[1,3,5,7,-1,-1,9,11,-1,13,-1,-1,-1,-1,-1],"loss_changes":[1.8204762E1,3.363883E0,1.063749E1,2.5957718E0,0E0,0E0,6.0042057E0,8.059149E-1,0E0,4.5463562E-2,0E0,0E0,0E0,0E0,0E0],"parents":[2147483647,0,0,1,1,2,2,3,3,6,6,7,7,9,9],"right_children":[2,4,6,8,-1,-1,10,12,-1,14,-1,-1,-1,-1,-1],"split_conditions":[1.0602503E0,2.3994508E0,-2.1382503E-1,2.0603716E0,6.5026484E-2,-4.5103885E-2,4.13309E-1,-1.8917994E0,6.634504E-2,1.6000351E0,-5.5696396E-3,1.8102119E-2,-5.571982E-2,2.0158093E-1,6.0732197E-2],"split_indices":[2048,967,2049,74,0,0,360,1586,0,1806,0,0,0,0,0],"split_type":[0,0,0,0,0,0,0,0,0,0,0,0,0,0,0],"sum_hessian":[5.8751583E1,4.6760742E1,1.1990841E1,4.4874996E1,1.885747E0,3.6049602E0,8.38588E0,4.381208E1,1.0629158E0,6.4176583E0,1.9682223E0,1.0882124E0,4.272387E1,5.2789593E0,1.1386995E0],"tree_param":{"num_deleted":"0","num_feature":"2050","num_nodes":"15","size_leaf_vector":"1"}},{"base_weights":[-1.0094062E-1,8.9863086E-1,-5.5354454E-2,1.5797423E0,-4.8766907E-2,1.6828611E-1,1.7260147E-2],"categories":[],"categories_nodes":[],"categories_segments":[],"categories_sizes":[],"default_left":[0,0,0,0,0,0,0],"id":21,"left_children":[1,3,-1,5,-1,-1,-1],"loss_changes":[2.7812113E1,1.8898315E1,0E0,1.6117706E0,0E0,0E0,0E0],"parents":[2147483647,0,0,1,1,3,3],"right_children":[2,4,-1,6,-1,-1,-1],"split_conditions":[-8.452092E-1,-3.1908807E-1,-5.5354454E-2,8.169984E-1,-4.8766907E-2,1.6828611E-1,1.7260147E-2],"split_indices":[2049,2048,0,632,0,0,0],"split_type":[0,0,0,0,0,0,0],"sum_hessian":[5.937595E1,1.8198738E1,4.117721E1,1.2109571E1,6.089166E0,1.110018E1,1.009392E0],"tree_param":{"num_deleted":"0","num_feature":"2050","num_nodes":"7","size_leaf_vector":"1"}},{"base_weights":[-1.0851663E-1,3.6291766E-1,-5.192463E-1,7.3057115E-1,-5.0626773E-2,-5.4931786E-2,1.8172938E-2,1.0341951E0,-4.527054E-2,-3.8743023E-2,1.271414E0,-1.14962585E-1,1.5501992E0,-3.2626923E-2,1.8522395E-2,1.7497906E-1,5.2292254E-3],"categories":[],"categories_nodes":[],"categories_segments":[],"categories_sizes":[],"default_left":[0,0,0,0,0,0,0,0,0,0,0,0,0,0,0,0,0],"id":22,"left_children":[1,3,5,7,-1,-1,-1,9,-1,-1,11,13,15,-1,-1,-1,-1],"loss_changes":[1.1777604E1,9.462932E0,7.827244E-1,7.7994833E0,0E0,0E0,0E0,6.0716896E0,0E0,0E0,5.748232E0,2.7253133E-1,3.5163517E0,0E0,0E0,0E0,0E0],"parents":[2147483647,0,0,1,1,2,2,3,3,7,7,10,10,11,11,12,12],"right_children":[2,4,6,8,-1,-1,-1,10,-1,-1,12,14,16,-1,-1,-1,-1],"split_conditions":[-3.0159032E-1,4.0687948E-1,1.6988504E0,6.65917E-1,-5.0626773E-2,-5.4931786E-2,1.8172938E-2,-9.031911E-1,-4.527054E-2,-3.8743023E-2,-4.4553354E-1,-2.2122508E-1,1.0729537E0,-3.2626923E-2,1.8522395E-2,1.7497906E-1,5.2292254E-3],"split_indices":[2049,2048,12,481,0,0,0,1787,0,0,361,100,1557,0,0,0,0],"split_type":[0,0,0,0,0,0,0,0,0,0,0,0,0,0,0,0,0],"sum_hessian":[5.885146E1,2.7455046E1,3.1396414E1,1.9406036E1,8.04901E0,3.031238E1,1.0840352E0,1.5543601E1,3.8624346E0,2.1322227E0,1.3411379E1,2.3437457E0,1.1067633E1,1.3245109E0,1.0192349E0,9.617918E0,1.4497145E0],"tree_param":{"num_deleted":"0","num_feature":"2050","num_nodes":"17","size_leaf_vector":"1"}},{"base_weights":[9.64703E-2,5.680777E-1,-2.0296918E-1,-2.9131252E-1,9.54302E-1,7.0567435E-1,-3.6433956E-1,6.77168E-2,-5.0402172E-2,1.2921494E0,-2.5391334E-1,-3.8964532E-2,1.3058297E-1,1.00293934E-1,-4.4106245E-1,1.5224795E0,-3.4967795E-2,1.8022224E-2,-4.217448E-2,-5.2272487E-1,3.4126154E-1,1.6739368E0,9.774488E-3,-5.5351656E-2,2.0375881E-2,1.0261839E-1,-3.5931204E-2,1.7674161E-1,5.1836856E-2],"categories":[],"categories_nodes":[],"categories_segments":[],"categories_sizes":[],"default_left":[0,0,0,0,0,0,0,0,0,0,0,0,0,0,0,0,0,0,0,0,0,0,0,0,0,0,0,0,0],"id":23,"left_children":[1,3,5,7,9,11,13,-1,-1,15,17,-1,-1,-1,19,21,-1,-1,-1,23,25,27,-1,-1,-1,-1,-1,-1,-1],"loss_changes":[9.371147E0,8.813972E0,6.2433248E0,2.141825E0,7.6661587E0,4.7800255E0,4.148358E0,0E0,0E0,5.9071445E0,4.2312908E-1,0E0,0E0,0E0,2.3598437E0,2.566307E0,0E0,0E0,0E0,8.132534E-1,2.2076616E0,3.123989E-1,0E0,0E0,0E0,0E0,0E0,0E0,0E0],"parents":[2147483647,0,0,1,1,2,2,3,3,4,4,5,5,6,6,9,9,10,10,14,14,15,15,19,19,20,20,21,21],"right_children":[2,4,6,8,10,12,14,-1,-1,16,18,-1,-1,-1,20,22,-1,-1,-1,24,26,28,-1,-1,-1,-1,-1,-1,-1],"split_conditions":[-4.9209264E-1,-6.540724E-1,-1.0240947E0,-1.3047194E0,1.8460467E-2,-5.421527E-2,-1.3696821E0,6.77168E-2,-5.0402172E-2,5.56334E-1,-1.033245E0,-3.8964532E-2,1.3058297E-1,1.00293934E-1,1.5391781E0,1.3597239E0,-3.4967795E-2,1.8022224E-2,-4.217448E-2,2.1683767E0,-3.3762527E-1,6.015626E-1,9.774488E-3,-5.5351656E-2,2.0375881E-2,1.0261839E-1,-3.5931204E-2,1.7674161E-1,5.1836856E-2],"split_indices":[1144,1891,1577,1265,484,435,8,0,0,2049,1592,0,0,0,1543,382,0,0,0,724,260,814,0,0,0,0,0,0,0],"split_type":[0,0,0,0,0,0,0,0,0,0,0,0,0,0,0,0,0,0,0,0,0,0,0,0,0,0,0,0,0],"sum_hessian":[6.454301E1,2.4717155E1,3.982585E1,7.7401776E0,1.6976978E1,5.497507E0,3.4328346E1,1.000642E0,6.739536E0,1.321286E1,3.764118E0,2.0701387E0,3.4273682E0,1.1825144E0,3.314583E1,1.1651041E1,1.5618188E0,1.0288712E0,2.735247E0,3.0313412E1,2.8324175E0,1.0373381E1,1.2776603E0,2.9309242E1,1.0041703E0,1.1971934E0,1.6352241E0,9.107181E0,1.2662007E0],"tree_param":{"num_deleted":"0","num_feature":"2050","num_nodes":"29","size_leaf_vector":"1"}},{"base_weights":[1.3328086E-1,-3.3673826E-1,3.6483708E-1,3.208134E-1,-4.9231035E-1,6.727552E-1,-1.2621929E-1,1.1977472E-1,-4.0743995E-2,2.0386446E-2,-5.429486E-2,1.1267018E0,1.0334899E-1,5.9929734E-1,-3.9650714E-1,-3.5550356E-2,1.3228757E0,-5.0426316E-2,8.3759254E-1,-3.7723716E-2,1.22634254E-1,-5.3071953E-2,5.727131E-2,1.5330242E0,-3.362348E-2,-3.7393883E-2,1.3936871E-1,1.6628781E-1,1.3104327E-2],"categories":[],"categories_nodes":[],"categories_segments":[],"categories_sizes":[],"default_left":[0,0,0,0,0,0,0,0,0,0,0,0,0,0,0,0,0,0,0,0,0,0,0,0,0,0,0,0,0],"id":24,"left_children":[1,3,5,7,9,11,13,-1,-1,-1,-1,15,17,19,21,-1,23,-1,25,-1,-1,-1,-1,27,-1,-1,-1,-1,-1],"loss_changes":[7.4486227E0,2.4837463E0,6.975993E0,3.6526985E0,7.7275705E-1,7.1645126E0,3.8470123E0,0E0,0E0,0E0,0E0,4.9982243E0,6.488078E0,3.7655716E0,2.1266427E0,0E0,5.3841095E0,0E0,4.9221487E0,0E0,0E0,0E0,0E0,2.0712051E0,0E0,0E0,0E0,0E0,0E0],"parents":[2147483647,0,0,1,1,2,2,3,3,4,4,5,5,6,6,11,11,12,12,13,13,14,14,16,16,18,18,23,23],"right_children":[2,4,6,8,10,12,14,-1,-1,-1,-1,16,18,20,22,-1,24,-1,26,-1,-1,-1,-1,28,-1,-1,-1,-1,-1],"split_conditions":[-4.4902733E-1,-9.247137E-1,1.2480909E-2,-5.241245E-1,-1.7143364E0,-2.310875E-1,-8.1356966E-1,1.1977472E-1,-4.0743995E-2,2.0386446E-2,-5.429486E-2,-7.311255E-1,5.6430772E-2,-5.137249E-2,1.6817659E0,-3.5550356E-2,1.3007125E0,-5.0426316E-2,-7.007855E-1,-3.7723716E-2,1.22634254E-1,-5.3071953E-2,5.727131E-2,-1.0705721E-2,-3.362348E-2,-3.7393883E-2,1.3936871E-1,1.6628781E-1,1.3104327E-2],"split_indices":[1618,92,178,554,984,820,757,0,0,0,0,1655,60,1510,1353,0,1564,0,1362,0,0,0,0,1832,0,0,0,0,0],"split_type":[0,0,0,0,0,0,0,0,0,0,0,0,0,0,0,0,0,0,0,0,0,0,0,0,0,0,0,0,0],"sum_hessian":[6.631026E1,2.1735895E1,4.4574356E1,3.9554336E0,1.7780462E1,2.7168356E1,1.7406002E1,1.5020453E0,2.4533882E0,1.0004457E0,1.6780016E1,1.4572232E1,1.2596124E1,4.394057E0,1.3011945E1,1.608315E0,1.2963917E1,7.0638022E0,5.532322E0,1.8739827E0,2.5200744E0,1.1826677E1,1.1852682E0,1.1573922E1,1.3899951E0,1.8435175E0,3.6888041E0,1.04224825E1,1.1514394E0],"tree_param":{"num_deleted":"0","num_feature":"2050","num_nodes":"29","size_leaf_vector":"1"}},{"base_weights":[1.3619356E-1,4.0250233E-1,-3.540281E-1,-3.0088836E-1,7.711178E-1,-5.4549515E-2,3.8487607E-1,-4.7123143E-1,8.671486E-2,1.0381149E0,-4.448618E-2,1.18504845E-1,-4.153226E-2,1.8918512E-2,-5.3456225E-2,1.3569657E0,1.7340194E-1,8.617354E-2,-4.8592582E-2,-9.935228E-2,1.5895549E0,-4.587481E-2,1.0189926E-1,-3.0398672E-2,1.46595985E-2,7.1008825E-3,1.7459972E-1],"categories":[],"categories_nodes":[],"categories_segments":[],"categories_sizes":[],"default_left":[0,0,0,0,0,0,0,0,0,0,0,0,0,0,0,0,0,0,0,0,0,0,0,0,0,0,0],"id":25,"left_children":[1,3,5,7,9,-1,11,13,-1,15,17,-1,-1,-1,-1,19,21,-1,-1,23,25,-1,-1,-1,-1,-1,-1],"loss_changes":[9.0388155E0,1.18023815E1,3.6789188E0,3.6048007E0,6.4835052E0,0E0,4.0986013E0,7.145827E-1,0E0,5.9163265E0,3.7188518E0,0E0,0E0,0E0,0E0,5.629801E0,4.293287E0,0E0,0E0,2.0390071E-1,3.1991959E0,0E0,0E0,0E0,0E0,0E0,0E0],"parents":[2147483647,0,0,1,1,2,2,3,3,4,4,6,6,7,7,9,9,10,10,15,15,16,16,19,19,20,20],"right_children":[2,4,6,8,10,-1,12,14,-1,16,18,-1,-1,-1,-1,20,22,-1,-1,24,26,-1,-1,-1,-1,-1,-1],"split_conditions":[2.4921836E-1,-3.1908807E-1,1.0657557E0,1.3014432E0,1.9552366E-1,-5.4549515E-2,1.1377902E-1,-1.1406358E0,8.671486E-2,5.116051E-1,-3.156048E-1,1.18504845E-1,-4.153226E-2,1.8918512E-2,-5.3456225E-2,-1.2274498E0,2.5195345E-1,8.617354E-2,-4.8592582E-2,-5.294373E-1,-2.1058266E0,-4.587481E-2,1.0189926E-1,-3.0398672E-2,1.46595985E-2,7.1008825E-3,1.7459972E-1],"split_indices":[1275,2048,1265,1002,1310,0,1893,861,0,705,896,0,0,0,0,1199,1691,0,0,44,527,0,0,0,0,0,0],"split_type":[0,0,0,0,0,0,0,0,0,0,0,0,0,0,0,0,0,0,0,0,0,0,0,0,0,0,0],"sum_hessian":[6.7144745E1,4.362485E1,2.3519892E1,1.5063833E1,2.8561016E1,1.8887466E1,4.6324244E0,1.3667209E1,1.3966244E0,2.1311605E1,7.249412E0,2.075775E0,2.5566497E0,1.0220425E0,1.2645166E1,1.5154376E1,6.157229E0,2.0627453E0,5.1866665E0,2.1658869E0,1.2988489E1,3.7850602E0,2.3721685E0,1.0534307E0,1.1124562E0,1.3489054E0,1.1639584E1],"tree_param":{"num_deleted":"0","num_feature":"2050","num_nodes":"27","size_leaf_vector":"1"}},{"base_weights":[-5.8377966E-2,-5.133733E-1,3.249152E-1,-5.4752745E-2,1.8070012E-2,-4.1933224E-1,6.240726E-1,-5.0826855E-2,2.0283034E-2,9.4526124E-1,-6.621142E-2,1.3338567E0,-1.1782078E-1,9.4688E-2,-4.9025998E-2,-3.0105485E-2,1.5204661E0,6.663687E-2,-4.4646416E-2,1.0611002E-2,1.6861475E-1],"categories":[],"categories_nodes":[],"categories_segments":[],"categories_sizes":[],"default_left":[0,0,0,0,0,0,0,0,0,0,0,0,0,0,0,0,0,0,0,0,0],"id":26,"left_children":[1,3,5,-1,-1,7,9,-1,-1,11,13,15,17,-1,-1,-1,19,-1,-1,-1,-1],"loss_changes":[1.087574E1,7.7369785E-1,7.8186417E0,0E0,0E0,6.7465484E-1,5.519312E0,0E0,0E0,7.122961E0,4.2231817E0,4.249815E0,1.6975809E0,0E0,0E0,0E0,2.4740257E0,0E0,0E0,0E0,0E0],"parents":[2147483647,0,0,1,1,2,2,5,5,6,6,9,9,10,10,11,11,12,12,16,16],"right_children":[2,4,6,-1,-1,8,10,-1,-1,12,14,16,18,-1,-1,-1,20,-1,-1,-1,-1],"split_conditions":[4.389571E-2,1.4748594E0,-3.38338E-1,-5.4752745E-2,1.8070012E-2,2.0263553E0,2.0938402E-1,-5.0826855E-2,2.0283034E-2,3.7016907E-1,-1.0574263E0,-9.8079395E-1,-9.870235E-1,9.4688E-2,-4.9025998E-2,-3.0105485E-2,-9.774168E-1,6.663687E-2,-4.4646416E-2,1.0611002E-2,1.6861475E-1],"split_indices":[2048,1642,2049,0,0,1005,136,0,0,1353,1077,297,1311,0,0,0,1306,0,0,0,0],"split_type":[0,0,0,0,0,0,0,0,0,0,0,0,0,0,0,0,0,0,0,0,0],"sum_hessian":[6.040565E1,2.7464283E1,3.294137E1,2.6377434E1,1.0868487E0,9.329533E0,2.3611835E1,8.322865E0,1.006668E0,1.5861917E1,7.749919E0,1.142936E1,4.4325566E0,1.9229237E0,5.8269954E0,1.1080743E0,1.0321286E1,1.0055463E0,3.42701E0,1.254297E0,9.066989E0],"tree_param":{"num_deleted":"0","num_feature":"2050","num_nodes":"21","size_leaf_vector":"1"}},{"base_weights":[-1.4372194E-1,-4.6217746E-1,7.0720845E-1,-5.065369E-1,7.006456E-2,-4.798497E-2,1.3050245E0,-5.5302348E-2,6.984579E-2,1.6077276E0,-5.8617494E-3,1.1564322E-2,1.8250988E-1],"categories":[],"categories_nodes":[],"categories_segments":[],"categories_sizes":[],"default_left":[0,0,0,0,0,0,0,0,0,0,0,0,0],"id":27,"left_children":[1,3,5,7,-1,-1,9,-1,-1,11,-1,-1,-1],"loss_changes":[1.6166685E1,2.5801325E0,1.220304E1,2.7464848E0,0E0,0E0,4.6837006E0,0E0,0E0,2.7513905E0,0E0,0E0,0E0],"parents":[2147483647,0,0,1,1,2,2,3,3,6,6,9,9],"right_children":[2,4,6,8,-1,-1,10,-1,-1,12,-1,-1,-1],"split_conditions":[8.4246004E-1,2.0931885E0,-2.1382503E-1,2.4436107E0,7.006456E-2,-4.798497E-2,4.4646895E-1,-5.5302348E-2,6.984579E-2,-7.399694E-1,-5.8617494E-3,1.1564322E-2,1.8250988E-1],"split_indices":[2048,1704,2049,1622,0,0,1700,0,0,1768,0,0,0],"split_type":[0,0,0,0,0,0,0,0,0,0,0,0,0],"sum_hessian":[5.745312E1,4.213952E1,1.53136015E1,4.11347E1,1.0048181E0,5.1951466E0,1.0118455E1,4.01277E1,1.0069984E0,8.133888E0,1.9845674E0,1.2290968E0,6.904791E0],"tree_param":{"num_deleted":"0","num_feature":"2050","num_nodes":"13","size_leaf_vector":"1"}},{"base_weights":[-9.80326E-2,8.13515E-1,-5.486703E-2,1.3817439E0,-4.8123594E-2,1.4735407E-2,1.4692293E-1],"categories":[],"categories_nodes":[],"categories_segments":[],"categories_sizes":[],"default_left":[0,0,0,0,0,0,0],"id":28,"left_children":[1,3,-1,5,-1,-1,-1],"loss_changes":[2.4690905E1,1.53263645E1,0E0,1.3070545E0,0E0,0E0,0E0],"parents":[2147483647,0,0,1,1,3,3],"right_children":[2,4,-1,6,-1,-1,-1],"split_conditions":[-8.452092E-1,-3.1908807E-1,-5.486703E-2,-1.1070759E0,-4.8123594E-2,1.4735407E-2,1.4692293E-1],"split_indices":[2049,2048,0,1033,0,0,0],"split_type":[0,0,0,0,0,0,0],"sum_hessian":[5.80211E1,1.8928127E1,3.909297E1,1.310815E1,5.8199778E0,1.0451894E0,1.2062961E1],"tree_param":{"num_deleted":"0","num_feature":"2050","num_nodes":"7","size_leaf_vector":"1"}},{"base_weights":[-1.0562017E-1,3.3628735E-1,-5.13133E-1,6.6465235E-1,-4.9997754E-2,-5.445218E-2,1.9471599E-2,9.2335814E-1,-4.4405717E-2,1.1237754E0,-3.815275E-2,1.2780697E0,-3.202194E-2,-2.8328449E-2,1.4203133E-1],"categories":[],"categories_nodes":[],"categories_segments":[],"categories_sizes":[],"default_left":[0,0,0,0,0,0,0,0,0,0,0,0,0,0,0],"id":29,"left_children":[1,3,5,7,-1,-1,-1,9,-1,11,-1,13,-1,-1,-1],"loss_changes":[1.0740181E1,8.228987E0,7.931347E-1,6.4559116E0,0E0,0E0,0E0,4.983199E0,0E0,3.8292408E0,0E0,3.5268574E0,0E0,0E0,0E0],"parents":[2147483647,0,0,1,1,2,2,3,3,7,7,9,9,11,11],"right_children":[2,4,6,8,-1,-1,-1,10,-1,12,-1,14,-1,-1,-1],"split_conditions":[-3.0159032E-1,4.0687948E-1,1.9376035E0,6.65917E-1,-4.9997754E-2,-5.445218E-2,1.9471599E-2,1.0924687E0,-4.4405717E-2,1.5776983E0,-3.815275E-2,-1.1180383E0,-3.202194E-2,-2.8328449E-2,1.4203133E-1],"split_indices":[2049,2048,1861,481,0,0,0,51,0,1555,0,1071,0,0,0],"split_type":[0,0,0,0,0,0,0,0,0,0,0,0,0,0,0],"sum_hessian":[5.7681957E1,2.7757002E1,2.9924955E1,2.0078327E1,7.6786757E0,2.887525E1,1.0497053E0,1.641519E1,3.6631355E0,1.4349974E1,2.065217E0,1.3068481E1,1.2814925E0,1.0083749E0,1.2060106E1],"tree_param":{"num_deleted":"0","num_feature":"2050","num_nodes":"15","size_leaf_vector":"1"}},{"base_weights":[9.273729E-2,5.220678E-1,-1.9400705E-1,-2.8075328E-1,8.5508335E-1,6.452899E-1,-3.5435727E-1,6.694471E-2,-4.9782388E-2,1.1358094E0,-2.451523E-1,-3.8199984E-2,1.15777396E-1,9.254661E-2,-4.3206456E-1,1.3245314E0,-3.433753E-2,1.7951164E-2,-4.143731E-2,-5.1599956E-1,3.2744515E-1,8.652507E-3,1.4480984E0,1.9807534E-2,-5.4798722E-2,1.1127144E-1,-3.6964893E-2,1.5257461E-1,4.631142E-2],"categories":[],"categories_nodes":[],"categories_segments":[],"categories_sizes":[],"default_left":[0,0,0,0,0,0,0,0,0,0,0,0,0,0,0,0,0,0,0,0,0,0,0,0,0,0,0,0,0],"id":30,"left_children":[1,3,5,7,9,11,13,-1,-1,15,17,-1,-1,-1,19,21,-1,-1,-1,23,25,-1,27,-1,-1,-1,-1,-1,-1],"loss_changes":[8.103084E0,7.271083E0,5.5714693E0,2.078919E0,6.096034E0,3.981482E0,3.7789168E0,0E0,0E0,4.6934986E0,4.0864295E-1,0E0,0E0,0E0,2.2544422E0,1.9661732E0,0E0,0E0,0E0,7.902837E-1,2.5282805E0,0E0,2.3929596E-1,0E0,0E0,0E0,0E0,0E0,0E0],"parents":[2147483647,0,0,1,1,2,2,3,3,4,4,5,5,6,6,9,9,10,10,14,14,15,15,19,19,20,20,22,22],"right_children":[2,4,6,8,10,12,14,-1,-1,16,18,-1,-1,-1,20,22,-1,-1,-1,24,26,-1,28,-1,-1,-1,-1,-1,-1],"split_conditions":[-4.9209264E-1,-6.540724E-1,-1.0240947E0,-1.8879259E0,1.8460467E-2,-5.421527E-2,-1.3696821E0,6.694471E-2,-4.9782388E-2,5.56334E-1,-7.1331584E-1,-3.8199984E-2,1.15777396E-1,9.254661E-2,1.5391781E0,-1.0146717E0,-3.433753E-2,1.7951164E-2,-4.143731E-2,-1.4581411E0,-5.893816E-1,8.652507E-3,7.7412266E-1,1.9807534E-2,-5.4798722E-2,1.1127144E-1,-3.6964893E-2,1.5257461E-1,4.631142E-2],"split_indices":[1144,1891,1577,1599,484,435,8,0,0,2049,1266,0,0,0,1543,1102,0,0,0,2021,1017,0,2012,0,0,0,0,0,0],"split_type":[0,0,0,0,0,0,0,0,0,0,0,0,0,0,0,0,0,0,0,0,0,0,0,0,0,0,0,0,0],"sum_hessian":[6.399815E1,2.5298727E1,3.869942E1,7.4633374E0,1.783539E1,5.72254E0,3.297688E1,1.0003629E0,6.4629745E0,1.4183999E1,3.651392E0,1.9893795E0,3.7331605E0,1.2631652E0,3.1713715E1,1.2671816E1,1.5121825E0,1.0230953E0,2.6282969E0,2.884645E1,2.8672655E0,1.304308E0,1.1367508E1,1.0141828E0,2.7832268E1,1.0679793E0,1.7992861E0,1.0027983E1,1.3395253E0],"tree_param":{"num_deleted":"0","num_feature":"2050","num_nodes":"29","size_leaf_vector":"1"}},{"base_weights":[1.2560757E-1,-3.2741195E-1,3.3895123E-1,3.0695754E-1,-4.846304E-1,-1.2201242E-1,6.161737E-1,1.08977675E-1,-3.9919753E-2,2.0283567E-2,-5.3706136E-2,4.544183E-1,-4.4827896E-1,1.9646522E-2,9.8254716E-1,1.0643729E0,-4.1424554E-2,-5.2200954E-2,1.6974736E-2,6.59315E-1,-4.9460515E-2,1.2121092E0,-3.9617285E-2,1.3206087E-1,1.4483293E-2,-3.5409037E-2,1.1294301E-1,1.3746283E0,-3.2309566E-2,1.500721E-1,7.4068643E-3],"categories":[],"categories_nodes":[],"categories_segments":[],"categories_sizes":[],"default_left":[0,0,0,0,0,0,0,0,0,0,0,0,0,0,0,0,0,0,0,0,0,0,0,0,0,0,0,0,0,0,0],"id":31,"left_children":[1,3,5,7,9,11,13,-1,-1,-1,-1,15,17,19,21,23,-1,-1,-1,25,-1,27,-1,-1,-1,-1,-1,29,-1,-1,-1],"loss_changes":[6.5858235E0,2.3386722E0,5.9581146E0,3.1841888E0,7.5716496E-1,3.612171E0,6.299631E0,0E0,0E0,0E0,0E0,4.1747465E0,6.3889813E-1,4.2805486E0,6.142853E0,8.502078E-1,0E0,0E0,0E0,3.1564908E0,0E0,4.332327E0,0E0,0E0,0E0,0E0,0E0,2.2310333E0,0E0,0E0,0E0],"parents":[2147483647,0,0,1,1,2,2,3,3,4,4,5,5,6,6,11,11,12,12,13,13,14,14,15,15,19,19,21,21,27,27],"right_children":[2,4,6,8,10,12,14,-1,-1,-1,-1,16,18,20,22,24,-1,-1,-1,26,-1,28,-1,-1,-1,-1,-1,30,-1,-1,-1],"split_conditions":[-4.4902733E-1,-9.247137E-1,-2.3373416E-1,-5.241245E-1,-1.864458E0,-5.907876E-1,-5.769887E-1,1.08977675E-1,-3.9919753E-2,2.0283567E-2,-5.3706136E-2,-5.042556E-1,1.5265509E0,-6.274669E-1,4.321284E-1,4.9082705E-1,-4.1424554E-2,-5.2200954E-2,1.6974736E-2,-6.755434E-2,-4.9460515E-2,7.839375E-1,-3.9617285E-2,1.3206087E-1,1.4483293E-2,-3.5409037E-2,1.1294301E-1,8.923303E-1,-3.2309566E-2,1.500721E-1,7.4068643E-3],"split_indices":[1618,92,1466,554,1855,809,973,0,0,0,0,460,1701,958,2039,89,0,0,0,1670,0,1241,0,0,0,0,0,413,0,0,0],"split_type":[0,0,0,0,0,0,0,0,0,0,0,0,0,0,0,0,0,0,0,0,0,0,0,0,0,0,0,0,0,0,0],"sum_hessian":[6.599353E1,2.095739E1,4.503614E1,3.973216E0,1.6984175E1,1.7123377E1,2.7912764E1,1.6266803E0,2.3465357E0,1.0002617E0,1.5983912E1,6.0470257E0,1.1076352E1,1.1021404E1,1.689136E1,3.420168E0,2.6268578E0,1.0034585E1,1.0417666E0,4.7860436E0,6.2353606E0,1.4583925E1,2.3074331E0,2.333704E0,1.086464E0,1.5948658E0,3.1911778E0,1.3282424E1,1.3015018E0,1.1968174E1,1.3142493E0],"tree_param":{"num_deleted":"0","num_feature":"2050","num_nodes":"31","size_leaf_vector":"1"}},{"base_weights":[1.2872028E-1,3.730355E-1,-3.4435287E-1,-2.915434E-1,6.9900584E-1,-5.392899E-2,3.6368513E-1,-4.6439597E-1,8.165691E-2,-4.270653E-2,9.268582E-1,1.070471E-1,-4.0706832E-2,-5.286489E-2,1.8209105E-2,-4.8144303E-2,8.263628E-2,1.0896306E0,-4.0186156E-2,-3.6673732E-2,1.2353704E0,1.349443E-1,-3.092019E-2],"categories":[],"categories_nodes":[],"categories_segments":[],"categories_sizes":[],"default_left":[0,0,0,0,0,0,0,0,0,0,0,0,0,0,0,0,0,0,0,0,0,0,0],"id":32,"left_children":[1,3,5,7,9,-1,11,13,-1,15,17,-1,-1,-1,-1,-1,-1,19,-1,-1,21,-1,-1],"loss_changes":[7.9628344E0,9.9910965E0,3.4541006E0,3.3621168E0,5.212015E0,0E0,3.5370946E0,6.8234324E-1,0E0,3.504806E0,5.5112343E0,0E0,0E0,0E0,0E0,0E0,0E0,4.945738E0,0E0,0E0,3.8477917E0,0E0,0E0],"parents":[2147483647,0,0,1,1,2,2,3,3,4,4,6,6,7,7,9,9,10,10,17,17,20,20],"right_children":[2,4,6,8,10,-1,12,14,-1,16,18,-1,-1,-1,-1,-1,-1,20,-1,-1,22,-1,-1],"split_conditions":[2.4921836E-1,-3.1908807E-1,1.0657557E0,1.6219245E0,-4.9564737E-1,-5.392899E-2,1.1377902E-1,1.5447195E0,8.165691E-2,2.5551343E-1,1.655914E0,1.070471E-1,-4.0706832E-2,-5.286489E-2,1.8209105E-2,-4.8144303E-2,8.263628E-2,-1.1705943E0,-4.0186156E-2,-3.6673732E-2,8.095201E-1,1.349443E-1,-3.092019E-2],"split_indices":[1275,2048,1265,1647,809,0,1893,1774,0,1576,63,0,0,0,0,0,0,1199,0,0,64,0,0],"split_type":[0,0,0,0,0,0,0,0,0,0,0,0,0,0,0,0,0,0,0,0,0,0,0],"sum_hessian":[6.6783775E1,4.4179207E1,2.2604567E1,1.4573267E1,2.960594E1,1.7911503E1,4.693063E0,1.3109284E1,1.4639825E0,7.148495E0,2.2457445E1,2.2452712E0,2.4477913E0,1.2089964E1,1.0193204E0,5.0467463E0,2.101749E0,2.0166876E1,2.2905686E0,1.696589E0,1.8470287E1,1.7317644E1,1.1526427E0],"tree_param":{"num_deleted":"0","num_feature":"2050","num_nodes":"23","size_leaf_vector":"1"}},{"base_weights":[-5.5766113E-2,-5.0654674E-1,3.025374E-1,-5.422883E-2,1.9337712E-2,-4.1074118E-1,5.713294E-1,-5.022598E-2,2.0326212E-2,7.979665E-1,-1.9043592E-1,9.8321253E-1,-3.9964985E-2,-4.6541315E-2,6.040742E-2,1.1568388E0,-3.632558E-2,1.2953943E-1,-3.0941093E-2],"categories":[],"categories_nodes":[],"categories_segments":[],"categories_sizes":[],"default_left":[0,0,0,0,0,0,0,0,0,0,0,0,0,0,0,0,0,0,0],"id":33,"left_children":[1,3,5,-1,-1,7,9,-1,-1,11,13,15,-1,-1,-1,17,-1,-1,-1],"loss_changes":[9.903943E0,7.8302765E-1,6.803314E0,0E0,0E0,6.6171277E-1,4.520215E0,0E0,0E0,4.761915E0,1.7250259E0,4.474951E0,0E0,0E0,0E0,3.570448E0,0E0,0E0,0E0],"parents":[2147483647,0,0,1,1,2,2,5,5,6,6,9,9,10,10,11,11,15,15],"right_children":[2,4,6,-1,-1,8,10,-1,-1,12,14,16,-1,-1,-1,18,-1,-1,-1],"split_conditions":[4.389571E-2,2.182879E0,-3.38338E-1,-5.422883E-2,1.9337712E-2,1.7286074E0,-7.593334E-2,-5.022598E-2,2.0326212E-2,5.068139E-1,1.0051817E0,8.850983E-1,-3.9964985E-2,-4.6541315E-2,6.040742E-2,1.264457E0,-3.632558E-2,1.2953943E-1,-3.0941093E-2],"split_indices":[2048,1257,2049,0,0,122,1020,0,0,1262,892,995,0,0,0,1021,0,0,0],"split_type":[0,0,0,0,0,0,0,0,0,0,0,0,0,0,0,0,0,0,0],"sum_hessian":[5.9369724E1,2.6108702E1,3.326102E1,2.5054514E1,1.054189E0,8.958977E0,2.4302044E1,7.9552236E0,1.0037531E0,1.8693048E1,5.608996E0,1.6344002E1,2.3490474E0,4.4745746E0,1.1344211E0,1.4601926E1,1.7420747E0,1.3447692E1,1.1542348E0],"tree_param":{"num_deleted":"0","num_feature":"2050","num_nodes":"19","size_leaf_vector":"1"}},{"base_weights":[-1.3706513E-1,-4.5368493E-1,6.4373165E-1,-4.997402E-1,6.800759E-2,-4.7361642E-2,1.1530042E0,-5.4817457E-2,6.796839E-2,1.3463564E0,-3.1693842E-2,8.769159E-3,1.5089998E0,1.6057399E-1,5.0004948E-2],"categories":[],"categories_nodes":[],"categories_segments":[],"categories_sizes":[],"default_left":[0,0,0,0,0,0,0,0,0,0,0,0,0,0,0],"id":34,"left_children":[1,3,5,7,-1,-1,9,-1,-1,11,-1,-1,13,-1,-1],"loss_changes":[1.4391474E1,2.4893045E0,1.0144661E1,2.6652374E0,0E0,0E0,3.8026829E0,0E0,0E0,2.0556316E0,0E0,0E0,1.1485481E-1,0E0,0E0],"parents":[2147483647,0,0,1,1,2,2,3,3,6,6,9,9,12,12],"right_children":[2,4,6,8,-1,-1,10,-1,-1,12,-1,-1,14,-1,-1],"split_conditions":[8.4246004E-1,2.2500317E0,-2.1382503E-1,2.5923104E0,6.800759E-2,-4.7361642E-2,1.21754E0,-5.4817457E-2,6.796839E-2,-5.680803E-1,-3.1693842E-2,8.769159E-3,2.0676215E-1,1.6057399E-1,5.0004948E-2],"split_indices":[2048,1213,2049,1257,0,0,1564,0,0,925,0,0,1429,0,0],"split_type":[0,0,0,0,0,0,0,0,0,0,0,0,0,0,0],"sum_hessian":[5.603287E1,4.0164692E1,1.586818E1,3.9134212E1,1.0304799E0,4.990029E0,1.0878152E1,3.810462E1,1.0295885E0,9.687906E0,1.1902452E0,1.2847387E0,8.403168E0,7.128207E0,1.2749608E0],"tree_param":{"num_deleted":"0","num_feature":"2050","num_nodes":"15","size_leaf_vector":"1"}},{"base_weights":[-9.530401E-2,7.45739E-1,-5.4395E-2,1.2297035E0,-4.7386713E-2,1.2471613E-2,1.3062792E-1],"categories":[],"categories_nodes":[],"categories_segments":[],"categories_sizes":[],"default_left":[0,0,0,0,0,0,0],"id":35,"left_children":[1,3,-1,5,-1,-1,-1],"loss_changes":[2.207941E1,1.2625752E1,0E0,1.0965958E0,0E0,0E0,0E0],"parents":[2147483647,0,0,1,1,3,3],"right_children":[2,4,-1,6,-1,-1,-1],"split_conditions":[-8.452092E-1,-3.1908807E-1,-5.4395E-2,-6.797794E-1,-4.7386713E-2,1.2471613E-2,1.3062792E-1],"split_indices":[2049,2048,0,12,0,0,0],"split_type":[0,0,0,0,0,0,0],"sum_hessian":[5.643973E1,1.9403412E1,3.703632E1,1.3885202E1,5.518211E0,1.070242E0,1.281496E1],"tree_param":{"num_deleted":"0","num_feature":"2050","num_nodes":"7","size_leaf_vector":"1"}},{"base_weights":[-1.03170544E-1,3.1193656E-1,-5.0693685E-1,6.0724765E-1,-4.9350653E-2,2.0915985E-2,-5.3976655E-2,8.322698E-1,-4.3617047E-2,-3.7361722E-2,1.0031954E0,-9.7521015E-2,1.179937E0,-3.0602103E-2,1.7051399E-2,1.3198933E-1,-2.8871436E-2],"categories":[],"categories_nodes":[],"categories_segments":[],"categories_sizes":[],"default_left":[0,0,0,0,0,0,0,0,0,0,0,0,0,0,0,0,0],"id":36,"left_children":[1,3,5,7,-1,-1,-1,9,-1,-1,11,13,15,-1,-1,-1,-1],"loss_changes":[9.768045E0,7.1713843E0,8.051529E-1,5.431661E0,0E0,0E0,0E0,4.10594E0,0E0,0E0,3.2522697E0,2.2848594E-1,3.2528305E0,0E0,0E0,0E0,0E0],"parents":[2147483647,0,0,1,1,2,2,3,3,7,7,10,10,11,11,12,12],"right_children":[2,4,6,8,-1,-1,-1,10,-1,-1,12,14,16,-1,-1,-1,-1],"split_conditions":[-3.0159032E-1,4.0687948E-1,-1.7057376E0,6.65917E-1,-4.9350653E-2,2.0915985E-2,-5.3976655E-2,-9.9673575E-1,-4.3617047E-2,-3.7361722E-2,-4.4553354E-1,-2.2839709E-1,1.1173224E0,-3.0602103E-2,1.7051399E-2,1.3198933E-1,-2.8871436E-2],"split_indices":[2049,2048,884,481,0,0,0,694,0,0,361,39,1257,0,0,0,0],"split_type":[0,0,0,0,0,0,0,0,0,0,0,0,0,0,0,0,0],"sum_hessian":[5.6336235E1,2.7890152E1,2.8446083E1,2.0587816E1,7.3023353E0,1.011509E0,2.7434574E1,1.7101988E1,3.4858289E0,1.9759241E0,1.5126063E1,2.1547668E0,1.2971297E1,1.1322712E0,1.0224955E0,1.193521E1,1.0360864E0],"tree_param":{"num_deleted":"0","num_feature":"2050","num_nodes":"17","size_leaf_vector":"1"}},{"base_weights":[9.018405E-2,3.019725E-1,-4.3836623E-1,7.156671E-1,-4.253275E-2,6.465115E-2,-5.369946E-2,-1.5150829E-1,9.842054E-1,9.094453E-1,-2.78687E-1,-4.5305304E-2,6.486489E-2,1.1569806E0,-3.5047874E-2,-2.971831E-2,1.2744325E-1,5.487055E-1,-4.77693E-1,1.2689093E0,4.6226196E-3,-3.4401078E-2,1.110248E-1,1.8603906E-2,-5.2998096E-2,1.3607548E-1,1.3514206E-2],"categories":[],"categories_nodes":[],"categories_segments":[],"categories_sizes":[],"default_left":[0,0,0,0,0,0,0,0,0,0,0,0,0,0,0,0,0,0,0,0,0,0,0,0,0,0,0],"id":37,"left_children":[1,3,5,7,9,-1,-1,11,13,15,17,-1,-1,19,-1,-1,-1,21,23,25,-1,-1,-1,-1,-1,-1,-1],"loss_changes":[7.3115215E0,6.6403584E0,2.3539E0,5.0695143E0,6.1546974E0,0E0,0E0,1.708424E0,4.156621E0,2.7797928E0,3.8512144E0,0E0,0E0,1.7608299E0,0E0,0E0,0E0,2.7338698E0,7.269654E-1,1.1966133E0,0E0,0E0,0E0,0E0,0E0,0E0,0E0],"parents":[2147483647,0,0,1,1,2,2,3,3,4,4,7,7,8,8,9,9,10,10,13,13,17,17,18,18,19,19],"right_children":[2,4,6,8,10,-1,-1,12,14,16,18,-1,-1,20,-1,-1,-1,22,24,26,-1,-1,-1,-1,-1,-1,-1],"split_conditions":[3.4396675E-1,-4.9209264E-1,-1.6665708E0,-6.540724E-1,-1.0240947E0,6.465115E-2,-5.369946E-2,5.772633E-1,3.6828178E-1,-6.2175715E-1,-1.0750428E0,-4.5305304E-2,6.486489E-2,1.3080158E0,-3.5047874E-2,-2.971831E-2,1.2744325E-1,-1.3831027E-1,-1.2475731E0,6.0294443E-1,4.6226196E-3,-3.4401078E-2,1.110248E-1,1.8603906E-2,-5.2998096E-2,1.3607548E-1,1.3514206E-2],"split_indices":[2049,1144,1848,1891,1577,0,0,698,484,461,47,0,0,1588,0,0,0,1308,1177,1408,0,0,0,0,0,0,0],"split_type":[0,0,0,0,0,0,0,0,0,0,0,0,0,0,0,0,0,0,0,0,0,0,0,0,0,0,0],"sum_hessian":[6.3133404E1,4.53789E1,1.7754505E1,2.0129398E1,2.52495E1,1.0166527E0,1.6737852E1,4.86262E0,1.5266778E1,4.4519334E0,2.0797565E1,3.8467433E0,1.0158768E0,1.3634881E1,1.6318963E0,1.0770464E0,3.374887E0,3.6916852E0,1.710588E1,1.2257346E1,1.3775352E0,1.575077E0,2.1166084E0,1.0623742E0,1.6043507E1,1.1153596E1,1.1037499E0],"tree_param":{"num_deleted":"0","num_feature":"2050","num_nodes":"27","size_leaf_vector":"1"}},{"base_weights":[1.1884926E-1,-3.1752908E-1,3.1571522E-1,1.6647202E-1,-5.283172E-2,-8.3866335E-2,5.9708697E-1,-4.4518553E-2,9.424507E-2,4.2170286E-1,-4.4685325E-1,7.7366704E-1,-2.8994069E-1,1.0709429E-1,-2.7657005E-1,-5.191031E-2,1.6876519E-2,1.0800753E0,1.922765E-1,-4.3491855E-2,1.5261898E-2,-4.290926E-2,1.610139E-2,-2.9922972E-2,1.2113508E0,8.3591753E-1,-4.5875233E-2,1.8993048E-2,1.3840775E-1,1.0831227E-1,7.1289465E-3],"categories":[],"categories_nodes":[],"categories_segments":[],"categories_sizes":[],"default_left":[0,0,0,0,0,0,0,0,0,0,0,0,0,0,0,0,0,0,0,0,0,0,0,0,0,0,0,0,0,0,0],"id":38,"left_children":[1,3,5,7,-1,9,11,-1,-1,13,15,17,19,-1,21,-1,-1,23,25,-1,-1,-1,-1,-1,27,29,-1,-1,-1,-1,-1],"loss_changes":[5.7990313E0,2.2427874E0,5.246015E0,3.8218734E0,0E0,3.8537462E0,4.4912205E0,0E0,0E0,4.3135247E0,6.262963E-1,3.8881226E0,4.0322787E-1,0E0,4.070874E-1,0E0,0E0,3.0495167E0,4.2183213E0,0E0,0E0,0E0,0E0,0E0,2.162693E0,8.596287E-1,0E0,0E0,0E0,0E0,0E0],"parents":[2147483647,0,0,1,1,2,2,3,3,5,5,6,6,9,9,10,10,11,11,12,12,14,14,17,17,18,18,24,24,25,25],"right_children":[2,4,6,8,-1,10,12,-1,-1,14,16,18,20,-1,22,-1,-1,24,26,-1,-1,-1,-1,-1,28,30,-1,-1,-1,-1,-1],"split_conditions":[-4.4902733E-1,-8.1075174E-1,-2.1383259E-1,1.191975E-2,-5.283172E-2,-7.679697E-1,8.970695E-1,-4.4518553E-2,9.424507E-2,-3.8419235E-1,1.3853755E0,-2.5355782E-2,8.3977795E-1,1.0709429E-1,1.7365791E-1,-5.191031E-2,1.6876519E-2,-1.1597383E0,-3.1330463E-1,-4.3491855E-2,1.5261898E-2,-4.290926E-2,1.610139E-2,-2.9922972E-2,-7.12638E-1,-8.5487336E-2,-4.5875233E-2,1.8993048E-2,1.3840775E-1,1.0831227E-1,7.1289465E-3],"split_indices":[1618,1871,1040,563,0,1266,1042,0,0,992,524,272,1441,0,141,0,0,1947,431,0,0,0,0,0,1188,16,0,0,0,0,0],"split_type":[0,0,0,0,0,0,0,0,0,0,0,0,0,0,0,0,0,0,0,0,0,0,0,0,0,0,0,0,0,0,0],"sum_hessian":[6.5335846E1,2.0121367E1,4.521448E1,6.16829E0,1.3953076E1,1.897279E1,2.6241692E1,3.6877496E0,2.4805408E0,7.8615055E0,1.1111284E1,2.199163E1,4.2500615E0,3.7972224E0,4.064283E0,1.0084528E1,1.0267566E0,1.3839893E1,8.151737E0,3.2143426E0,1.0357189E0,3.0281928E0,1.0360901E0,1.0915571E0,1.2748336E1,3.9563193E0,4.1954184E0,2.14767E0,1.0600666E1,2.6749647E0,1.2813545E0],"tree_param":{"num_deleted":"0","num_feature":"2050","num_nodes":"31","size_leaf_vector":"1"}},{"base_weights":[1.2106251E-1,-1.999676E-1,4.4250938E-1,9.0657316E-2,-2.935111E-1,7.067613E-1,-3.9312238E-1,-4.458125E-1,4.5376906E-1,-4.1290175E-2,8.484865E-1,1.9633776E-2,-4.940625E-2,-5.4355204E-2,2.458182E-1,1.1199663E-1,-4.004506E-2,-1.9380169E-1,1.0073878E0,-3.6600795E-2,8.6896025E-2,-3.8245007E-2,1.7336955E-2,1.1787766E0,1.8171316E-2,1.2961912E-1,-3.0031264E-2,5.7436008E-2,-3.8542002E-2],"categories":[],"categories_nodes":[],"categories_segments":[],"categories_sizes":[],"default_left":[0,0,0,0,0,0,0,0,0,0,0,0,0,0,0,0,0,0,0,0,0,0,0,0,0,0,0,0,0],"id":39,"left_children":[1,3,5,-1,7,9,11,13,15,-1,17,-1,-1,-1,19,-1,-1,21,23,-1,-1,-1,-1,25,27,-1,-1,-1,-1],"loss_changes":[7.024131E0,3.8180656E0,7.76229E0,0E0,3.8893456E0,4.493346E0,6.1976147E-1,1.9869094E0,3.8517547E0,0E0,4.087715E0,0E0,0E0,0E0,1.8747829E0,0E0,0E0,3.3974785E-1,3.4634228E0,0E0,0E0,0E0,0E0,3.429062E0,1.1307098E0,0E0,0E0,0E0,0E0],"parents":[2147483647,0,0,1,1,2,2,4,4,5,5,6,6,7,7,8,8,10,10,14,14,17,17,18,18,23,23,24,24],"right_children":[2,4,6,-1,8,10,12,14,16,-1,18,-1,-1,-1,20,-1,-1,22,24,-1,-1,-1,-1,26,28,-1,-1,-1,-1],"split_conditions":[1.0173194E-1,-2.305562E0,2.4921836E-1,9.0657316E-2,1.0844568E0,-1.1756597E0,-1.3879154E0,1.1067737E0,-6.4561255E-2,-4.1290175E-2,-1.0203408E0,1.9633776E-2,-4.940625E-2,-5.4355204E-2,4.5039645E-1,1.1199663E-1,-4.004506E-2,6.443412E-1,7.605015E-1,-3.6600795E-2,8.6896025E-2,-3.8245007E-2,1.7336955E-2,1.3309332E0,-6.7670023E-1,1.2961912E-1,-3.0031264E-2,5.7436008E-2,-3.8542002E-2],"split_indices":[444,517,1275,0,791,860,460,1391,1344,0,1013,0,0,0,15,0,0,800,1737,0,0,0,0,1569,313,0,0,0,0],"split_type":[0,0,0,0,0,0,0,0,0,0,0,0,0,0,0,0,0,0,0,0,0,0,0,0,0,0,0,0,0],"sum_hessian":[6.620968E1,3.3315395E1,3.2894287E1,1.9193728E0,3.139602E1,2.5108456E1,7.785831E0,2.6415716E1,4.9803042E0,2.6061163E0,2.250234E1,1.0001514E0,6.78568E0,2.3332521E1,3.0831947E0,2.6233115E0,2.3569925E0,2.9477036E0,1.9554636E1,1.763934E0,1.3192607E0,1.9197471E0,1.0279564E0,1.6503637E1,3.0509996E0,1.5404441E1,1.0991952E0,1.1050327E0,1.9459671E0],"tree_param":{"num_deleted":"0","num_feature":"2050","num_nodes":"29","size_leaf_vector":"1"}},{"base_weights":[-5.4035716E-2,-4.9975455E-1,2.8078282E-1,2.0550927E-2,-5.3718783E-2,-4.0184638E-1,5.2263314E-1,1.940756E-2,-4.976623E-2,7.744976E-1,-7.021613E-2,1.0648121E0,-1.21342346E-1,-4.829485E-2,8.233737E-2,1.2054088E0,-2.998943E-2,6.0255557E-2,-4.4023085E-2,7.883869E-3,1.3231705E-1],"categories":[],"categories_nodes":[],"categories_segments":[],"categories_sizes":[],"default_left":[0,0,0,0,0,0,0,0,0,0,0,0,0,0,0,0,0,0,0,0,0],"id":40,"left_children":[1,3,5,-1,-1,7,9,-1,-1,11,13,15,17,-1,-1,19,-1,-1,-1,-1,-1],"loss_changes":[8.982411E0,7.90874E-1,5.901496E0,0E0,0E0,6.438192E-1,3.9202366E0,0E0,0E0,4.876549E0,3.5828753E0,3.0262995E0,1.503815E0,0E0,0E0,1.5925484E0,0E0,0E0,0E0,0E0,0E0],"parents":[2147483647,0,0,1,1,2,2,5,5,6,6,9,9,10,10,11,11,12,12,15,15],"right_children":[2,4,6,-1,-1,8,10,-1,-1,12,14,16,18,-1,-1,20,-1,-1,-1,-1,-1],"split_conditions":[4.389571E-2,-1.5117064E0,-3.38338E-1,2.0550927E-2,-5.3718783E-2,-1.2876109E0,2.0938402E-1,1.940756E-2,-4.976623E-2,3.7016907E-1,1.062563E0,9.5240897E-1,-1.2964619E0,-4.829485E-2,8.233737E-2,-7.734599E-1,-2.998943E-2,6.0255557E-2,-4.4023085E-2,7.883869E-3,1.3231705E-1],"split_indices":[2048,1502,2049,0,0,1700,136,0,0,1353,1410,469,1772,0,0,1416,0,0,0,0,0],"split_type":[0,0,0,0,0,0,0,0,0,0,0,0,0,0,0,0,0,0,0,0,0],"sum_hessian":[5.8249462E1,2.477532E1,3.347414E1,1.0224159E0,2.3752905E1,8.584004E0,2.4890137E1,1.0469639E0,7.53704E0,1.7253717E1,7.6364202E0,1.288837E1,4.365348E0,5.5380435E0,2.0983768E0,1.1790408E1,1.0979607E0,1.0629139E0,3.302434E0,1.2738247E0,1.0516583E1],"tree_param":{"num_deleted":"0","num_feature":"2050","num_nodes":"21","size_leaf_vector":"1"}},{"base_weights":[-1.3007124E-1,-4.45161E-1,5.939606E-1,6.593346E-2,-4.929241E-1,-4.667144E-2,1.0364707E0,-5.4336734E-2,6.373642E-2,-3.1044582E-2,1.20113E0,1.3649277E-1,5.344278E-3],"categories":[],"categories_nodes":[],"categories_segments":[],"categories_sizes":[],"default_left":[0,0,0,0,0,0,0,0,0,0,0,0,0],"id":41,"left_children":[1,3,5,-1,7,-1,9,-1,-1,-1,11,-1,-1],"loss_changes":[1.2915661E1,2.3935552E0,8.577318E0,0E0,2.5219212E0,0E0,3.1403046E0,0E0,0E0,0E0,2.0558739E0,0E0,0E0],"parents":[2147483647,0,0,1,1,2,2,4,4,6,6,10,10],"right_children":[2,4,6,-1,8,-1,10,-1,-1,-1,12,-1,-1],"split_conditions":[8.4246004E-1,-1.8279058E0,-2.1382503E-1,6.593346E-2,2.0931885E0,-4.667144E-2,-1.0135317E0,-5.4336734E-2,6.373642E-2,-3.1044582E-2,4.4646895E-1,1.3649277E-1,5.344278E-3],"split_indices":[2048,574,2049,0,1704,0,635,0,0,0,1700,0,0],"split_type":[0,0,0,0,0,0,0,0,0,0,0,0,0],"sum_hessian":[5.4455112E1,3.821122E1,1.624389E1,1.0531614E0,3.715806E1,4.7658014E0,1.1478089E1,3.6067673E1,1.0903854E0,1.153887E0,1.0324203E1,8.869119E0,1.4550835E0],"tree_param":{"num_deleted":"0","num_feature":"2050","num_nodes":"13","size_leaf_vector":"1"}},{"base_weights":[-9.2934966E-2,6.9070953E-1,-5.394412E-2,1.1115841E0,-4.6627603E-2,1.1794162E-1,1.0785055E-2],"categories":[],"categories_nodes":[],"categories_segments":[],"categories_sizes":[],"default_left":[0,0,0,0,0,0,0],"id":42,"left_children":[1,3,-1,5,-1,-1,-1],"loss_changes":[1.9864073E1,1.0577569E1,0E0,9.2425346E-1,0E0,0E0,0E0],"parents":[2147483647,0,0,1,1,3,3],"right_children":[2,4,-1,6,-1,-1,-1],"split_conditions":[-8.452092E-1,-3.1908807E-1,-5.394412E-2,1.1826662E0,-4.6627603E-2,1.1794162E-1,1.0785055E-2],"split_indices":[2049,2048,0,1649,0,0,0],"split_type":[0,0,0,0,0,0,0],"sum_hessian":[5.470551E1,1.9657873E1,3.5047638E1,1.4443153E1,5.214719E0,1.3364925E1,1.0782284E0],"tree_param":{"num_deleted":"0","num_feature":"2050","num_nodes":"7","size_leaf_vector":"1"}},{"base_weights":[-1.0075397E-1,2.925964E-1,-5.0092125E-1,5.6171256E-1,-4.868223E-2,-5.3518623E-2,2.1239638E-2,7.6030576E-1,-4.2736325E-2,-3.6968455E-2,9.138542E-1,-1.2331489E-1,1.0913007E0,1.6604086E-2,-3.237606E-2,1.2009138E-1,4.651358E-3],"categories":[],"categories_nodes":[],"categories_segments":[],"categories_sizes":[],"default_left":[0,0,0,0,0,0,0,0,0,0,0,0,0,0,0,0,0],"id":43,"left_children":[1,3,5,7,-1,-1,-1,9,-1,-1,11,13,15,-1,-1,-1,-1],"loss_changes":[8.9305105E0,6.3087444E0,7.9880667E-1,4.617287E0,0E0,0E0,0E0,3.557866E0,0E0,0E0,3.1945047E0,2.4675001E-1,1.5816746E0,0E0,0E0,0E0,0E0],"parents":[2147483647,0,0,1,1,2,2,3,3,7,7,10,10,11,11,12,12],"right_children":[2,4,6,8,-1,-1,-1,10,-1,-1,12,14,16,-1,-1,-1,-1],"split_conditions":[-3.0159032E-1,4.0687948E-1,1.5415426E0,6.65917E-1,-4.868223E-2,-5.3518623E-2,2.1239638E-2,-9.031911E-1,-4.2736325E-2,-3.6968455E-2,-4.4553354E-1,-1.603182E-1,1.0729537E0,1.6604086E-2,-3.237606E-2,1.2009138E-1,4.651358E-3],"split_indices":[2049,2048,399,481,0,0,0,1787,0,0,361,338,1557,0,0,0,0],"split_type":[0,0,0,0,0,0,0,0,0,0,0,0,0,0,0,0,0],"sum_hessian":[5.480439E1,2.777316E1,2.7031227E1,2.0852552E1,6.9206095E0,2.6030542E1,1.0006846E0,1.7558363E1,3.2941883E0,1.9320982E0,1.5626265E1,2.3274508E0,1.3298814E1,1.0227251E0,1.3047256E0,1.1900815E1,1.397999E0],"tree_param":{"num_deleted":"0","num_feature":"2050","num_nodes":"17","size_leaf_vector":"1"}},{"base_weights":[8.695203E-2,2.569787E-1,-5.2388024E-2,6.5093535E-1,-6.031559E-2,-2.654434E-1,8.6088735E-1,2.7742755E-1,-5.1574867E-2,1.8067831E-2,-4.2465758E-2,1.0123761E0,-3.5979938E-2,5.955074E-1,-4.6114605E-2,-2.9678676E-2,1.1223336E0,1.1617787E-1,2.6573699E-2,1.1979642E-1,9.371887E-3,9.6467994E-2,-4.5745563E-2],"categories":[],"categories_nodes":[],"categories_segments":[],"categories_sizes":[],"default_left":[0,0,0,0,0,0,0,0,0,0,0,0,0,0,0,0,0,0,0,0,0,0,0],"id":44,"left_children":[1,3,-1,5,7,9,11,13,-1,-1,-1,15,-1,17,-1,-1,19,-1,21,-1,-1,-1,-1],"loss_changes":[6.6824493E0,6.2879114E0,0E0,4.535351E0,4.5429025E0,4.2739815E-1,3.775713E0,4.285784E0,0E0,0E0,0E0,2.7333298E0,0E0,3.9546576E0,0E0,0E0,1.1006222E0,0E0,3.7080357E0,0E0,0E0,0E0,0E0],"parents":[2147483647,0,0,1,1,3,3,4,4,5,5,6,6,7,7,11,11,13,13,16,16,18,18],"right_children":[2,4,-1,6,8,10,12,14,-1,-1,-1,16,-1,18,-1,-1,20,-1,22,-1,-1,-1,-1],"split_conditions":[6.62446E-1,-4.9209264E-1,-5.2388024E-2,-7.880334E-1,3.332252E-2,-1.0792674E0,3.6828178E-1,2.6143155E-1,-5.1574867E-2,1.8067831E-2,-4.2465758E-2,-1.0300306E0,-3.5979938E-2,-2.3078467E-1,-4.6114605E-2,-2.9678676E-2,7.481683E-1,1.1617787E-1,-6.4645475E-1,1.1979642E-1,9.371887E-3,9.6467994E-2,-4.5745563E-2],"split_indices":[2049,1144,0,1891,65,1025,484,1570,0,0,0,1102,0,324,0,0,1245,0,1801,0,0,0,0],"split_type":[0,0,0,0,0,0,0,0,0,0,0,0,0,0,0,0,0,0,0,0,0,0,0],"sum_hessian":[6.2046055E1,4.8989113E1,1.3056942E1,2.1385313E1,2.7603802E1,3.9370291E0,1.7448284E1,1.607422E1,1.1529581E1,1.0000508E0,2.9369783E0,1.5673797E1,1.7744868E0,1.1370863E1,4.703358E0,1.0828009E0,1.4590996E1,5.1765294E0,6.1943336E0,1.3438287E1,1.1527096E0,1.7702874E0,4.424046E0],"tree_param":{"num_deleted":"0","num_feature":"2050","num_nodes":"23","size_leaf_vector":"1"}},{"base_weights":[1.12741955E-1,-2.899463E-1,3.0571905E-1,3.6534545E-1,-4.8003086E-1,6.144474E-1,-7.04948E-2,-3.841331E-2,9.716152E-2,1.6236141E-2,-5.299601E-2,-4.142576E-2,7.6398367E-1,5.3378534E-1,-3.9891598E-1,8.808063E-1,-3.5955545E-2,-3.9134808E-2,9.904699E-2,-5.220866E-2,5.534376E-2,9.913563E-1,-3.3268567E-2,1.08099245E-1,-2.8507251E-2],"categories":[],"categories_nodes":[],"categories_segments":[],"categories_sizes":[],"default_left":[0,0,0,0,0,0,0,0,0,0,0,0,0,0,0,0,0,0,0,0,0,0,0,0,0],"id":45,"left_children":[1,3,5,7,9,11,13,-1,-1,-1,-1,-1,15,17,19,21,-1,-1,-1,-1,-1,23,-1,-1,-1],"loss_changes":[5.173709E0,2.8799329E0,5.2379203E0,2.8496256E0,6.3973355E-1,4.111165E0,4.3916435E0,0E0,0E0,0E0,0E0,0E0,3.1897411E0,3.7007518E0,1.9562714E0,3.0285778E0,0E0,0E0,0E0,0E0,0E0,2.4464378E0,0E0,0E0,0E0],"parents":[2147483647,0,0,1,1,2,2,3,3,4,4,5,5,6,6,12,12,13,13,14,14,15,15,21,21],"right_children":[2,4,6,8,10,12,14,-1,-1,-1,-1,-1,16,18,20,22,-1,-1,-1,-1,-1,24,-1,-1,-1],"split_conditions":[-2.6916802E-1,-8.4026396E-1,-2.9940453E-1,2.967723E-1,-1.4799879E0,-8.595728E-1,-6.6179335E-1,-3.841331E-2,9.716152E-2,1.6236141E-2,-5.299601E-2,-4.142576E-2,9.459534E-1,-3.8980907E-1,1.4253132E0,9.445121E-1,-3.5955545E-2,-3.9134808E-2,9.904699E-2,-5.220866E-2,5.534376E-2,1.4694511E0,-3.3268567E-2,1.08099245E-1,-2.8507251E-2],"split_indices":[114,1843,475,274,1200,1579,1635,0,0,0,0,0,578,929,1264,312,0,0,0,0,0,46,0,0,0],"split_type":[0,0,0,0,0,0,0,0,0,0,0,0,0,0,0,0,0,0,0,0,0,0,0,0,0],"sum_hessian":[6.443678E1,2.0712729E1,4.3724052E1,4.4499826E0,1.6262747E1,2.3668217E1,2.0055838E1,2.1538117E0,2.296171E0,1.0104465E0,1.52523E1,2.7791715E0,2.0889046E1,6.8418446E0,1.3213992E1,1.911732E1,1.7717266E0,2.3084815E0,4.533363E0,1.21007595E1,1.1132323E0,1.7688904E1,1.4284161E0,1.6671288E1,1.0176162E0],"tree_param":{"num_deleted":"0","num_feature":"2050","num_nodes":"25","size_leaf_vector":"1"}},{"base_weights":[1.15091175E-1,3.2460585E-1,-3.2643807E-1,-2.767016E-1,5.9087485E-1,3.4163722E-1,-5.291884E-2,-5.1572353E-2,4.7744748E-1,-4.151688E-2,6.991412E-1,-3.9917644E-2,1.0390425E-1,-3.1423766E-2,9.409106E-2,1.5075062E-1,9.12975E-1,-4.6091788E-2,6.9887143E-1,1.0338099E0,-3.4977954E-2,1.0044173E-1,-2.8901732E-2,-2.2307628E-4,1.1272415E-1],"categories":[],"categories_nodes":[],"categories_segments":[],"categories_sizes":[],"default_left":[0,0,0,0,0,0,0,0,0,0,0,0,0,0,0,0,0,0,0,0,0,0,0,0,0],"id":46,"left_children":[1,3,5,7,9,11,-1,-1,13,-1,15,-1,-1,-1,-1,17,19,-1,21,23,-1,-1,-1,-1,-1],"loss_changes":[6.2321177E0,7.434628E0,3.13505E0,2.8814206E0,3.7533417E0,3.3522515E0,0E0,0E0,1.7771153E0,0E0,3.2721777E0,0E0,0E0,0E0,0E0,3.4586499E0,3.523569E0,0E0,1.8995378E0,1.8577309E0,0E0,0E0,0E0,0E0,0E0],"parents":[2147483647,0,0,1,1,2,2,3,3,4,4,5,5,8,8,10,10,15,15,16,16,18,18,19,19],"right_children":[2,4,6,8,10,12,-1,-1,14,-1,16,-1,-1,-1,-1,18,20,-1,22,24,-1,-1,-1,-1,-1],"split_conditions":[2.4921836E-1,-3.1908807E-1,-8.012872E-1,9.8570186E-1,-1.045533E0,6.410849E-1,-5.291884E-2,-5.1572353E-2,1.2966174E-1,-4.151688E-2,-4.6929514E-1,-3.9917644E-2,1.0390425E-1,-3.1423766E-2,9.409106E-2,-4.3543327E-1,1.0883266E0,-4.6091788E-2,1.1745577E-1,-1.1925037E0,-3.4977954E-2,1.0044173E-1,-2.8901732E-2,-2.2307628E-4,1.1272415E-1],"split_indices":[1275,2048,1855,1821,339,1230,0,0,110,0,1177,0,0,0,0,953,1260,0,727,1429,0,0,0,0,0],"split_type":[0,0,0,0,0,0,0,0,0,0,0,0,0,0,0,0,0,0,0,0,0,0,0,0,0],"sum_hessian":[6.5223785E1,4.441349E1,2.0810297E1,1.3618976E1,3.0794516E1,4.685678E0,1.6124619E1,1.0581425E1,3.0375519E0,2.7165756E0,2.807794E1,2.479487E0,2.206191E0,1.2405058E0,1.797046E0,8.355278E0,1.972266E1,4.023925E0,4.3313537E0,1.8165667E1,1.556995E0,3.2953866E0,1.035967E0,1.5834355E0,1.658223E1],"tree_param":{"num_deleted":"0","num_feature":"2050","num_nodes":"25","size_leaf_vector":"1"}},{"base_weights":[-5.164159E-2,-5.308333E-2,2.4004212E-1,-4.0669218E-1,4.6822694E-1,2.0431668E-2,-4.977488E-2,6.8297136E-1,-1.5464924E-1,4.1635344E-3,9.742533E-1,-4.7602233E-2,6.842216E-2,-4.462802E-2,6.027745E-1,-3.3160426E-2,1.1413348E0,1.0670834E-2,7.924831E-2,1.2529324E-1,7.808391E-3],"categories":[],"categories_nodes":[],"categories_segments":[],"categories_sizes":[],"default_left":[0,0,0,0,0,0,0,0,0,0,0,0,0,0,0,0,0,0,0,0,0],"id":47,"left_children":[1,-1,3,5,7,-1,-1,9,11,13,15,-1,-1,-1,17,-1,19,-1,-1,-1,-1],"loss_changes":[8.214525E0,0E0,5.599781E0,6.633496E-1,3.7920175E0,0E0,0E0,4.084671E0,2.4503565E0,2.2140324E0,3.5346222E0,0E0,0E0,0E0,2.4695027E-1,0E0,1.4506035E0,0E0,0E0,0E0,0E0],"parents":[2147483647,0,0,2,2,3,3,4,4,7,7,8,8,9,9,10,10,14,14,16,16],"right_children":[2,-1,4,6,8,-1,-1,10,12,14,16,-1,-1,-1,18,-1,20,-1,-1,-1,-1],"split_conditions":[-1.01297796E-1,-5.308333E-2,-3.38338E-1,-1.1638477E0,4.6302405E-1,2.0431668E-2,-4.977488E-2,-4.5789647E-1,9.33911E-1,5.883392E-1,-1.2505913E0,-4.7602233E-2,6.842216E-2,-4.462802E-2,4.460788E-1,-3.3160426E-2,7.773745E-1,1.0670834E-2,7.924831E-2,1.2529324E-1,7.808391E-3],"split_indices":[2048,0,2049,1031,399,0,0,2046,933,1228,717,0,0,0,3,0,714,0,0,0,0],"split_type":[0,0,0,0,0,0,0,0,0,0,0,0,0,0,0,0,0,0,0,0,0],"sum_hessian":[5.6859077E1,2.1204098E1,3.565498E1,9.095032E0,2.6559948E1,1.0182852E0,8.076747E0,1.9678913E1,6.8810344E0,6.213402E0,1.3465511E1,5.2878084E0,1.593226E0,3.6906953E0,2.5227065E0,1.4157507E0,1.2049761E1,1.1301029E0,1.3926038E0,1.0743714E1,1.306046E0],"tree_param":{"num_deleted":"0","num_feature":"2050","num_nodes":"21","size_leaf_vector":"1"}},{"base_weights":[-1.24391705E-1,-4.3670884E-1,5.4838693E-1,-4.8622957E-1,6.286455E-2,-4.5984693E-2,9.3775487E-1,-5.3847592E-2,3.267036E-2,1.0823971E0,-3.0580906E-2,4.8001315E-3,1.2092295E0,4.0741976E-2,1.2856607E-1],"categories":[],"categories_nodes":[],"categories_segments":[],"categories_sizes":[],"default_left":[0,0,0,0,0,0,0,0,0,0,0,0,0,0,0],"id":48,"left_children":[1,3,5,7,-1,-1,9,-1,-1,11,-1,-1,13,-1,-1],"loss_changes":[1.1546519E1,2.2739367E0,7.3028617E0,1.7140665E0,0E0,0E0,2.661518E0,0E0,0E0,1.4935722E0,0E0,0E0,1.1928558E-1,0E0,0E0],"parents":[2147483647,0,0,1,1,2,2,3,3,6,6,9,9,12,12],"right_children":[2,4,6,8,-1,-1,10,-1,-1,12,-1,-1,14,-1,-1],"split_conditions":[8.4246004E-1,1.84981E0,-2.1382503E-1,1.945985E0,6.286455E-2,-4.5984693E-2,1.21754E0,-5.3847592E-2,3.267036E-2,-1.0752815E0,-3.0580906E-2,4.8001315E-3,-1.1780642E0,4.0741976E-2,1.2856607E-1],"split_indices":[2048,1350,2049,956,0,0,1564,0,0,1231,0,0,566,0,0],"split_type":[0,0,0,0,0,0,0,0,0,0,0,0,0,0,0],"sum_hessian":[5.281219E1,3.630813E1,1.6504063E1,3.521484E1,1.0932891E0,4.547557E0,1.1956506E1,3.3405518E1,1.8093235E0,1.0826811E1,1.1296947E0,1.3330919E0,9.493719E0,1.3771466E0,8.116572E0],"tree_param":{"num_deleted":"0","num_feature":"2050","num_nodes":"15","size_leaf_vector":"1"}},{"base_weights":[-9.025446E-2,6.447886E-1,-5.3495873E-2,1.0174146E0,-4.5871764E-2,8.936281E-3,1.0797667E-1],"categories":[],"categories_nodes":[],"categories_segments":[],"categories_sizes":[],"default_left":[0,0,0,0,0,0,0],"id":49,"left_children":[1,3,-1,5,-1,-1,-1],"loss_changes":[1.793146E1,8.992395E0,0E0,8.184109E-1,0E0,0E0,0E0],"parents":[2147483647,0,0,1,1,3,3],"right_children":[2,4,-1,6,-1,-1,-1],"split_conditions":[-8.452092E-1,-3.1908807E-1,-5.3495873E-2,-1.4882296E0,-4.5871764E-2,8.936281E-3,1.0797667E-1],"split_indices":[2049,2048,0,1116,0,0,0],"split_type":[0,0,0,0,0,0,0],"sum_hessian":[5.280169E1,1.9733929E1,3.306776E1,1.4810737E1,4.9231925E0,1.0856112E0,1.3725125E1],"tree_param":{"num_deleted":"0","num_feature":"2050","num_nodes":"7","size_leaf_vector":"1"}},{"base_weights":[-9.782035E-2,2.7658287E-1,-4.9473155E-1,5.242488E-1,-4.8001893E-2,2.1101996E-2,-5.30532E-2,7.0229447E-1,-4.185881E-2,-3.6130816E-2,8.389877E-1,-1.3102026E-1,9.9511987E-1,-3.0705411E-2,1.2224386E-2,1.09365664E-1,1.9415297E-3],"categories":[],"categories_nodes":[],"categories_segments":[],"categories_sizes":[],"default_left":[0,0,0,0,0,0,0,0,0,0,0,0,0,0,0,0,0],"id":50,"left_children":[1,3,5,7,-1,-1,-1,9,-1,-1,11,13,15,-1,-1,-1,-1],"loss_changes":[8.173998E0,5.586972E0,7.843256E-1,3.9751272E0,0E0,0E0,0E0,3.0391788E0,0E0,0E0,2.701521E0,1.8186828E-1,1.3958616E0,0E0,0E0,0E0,0E0],"parents":[2147483647,0,0,1,1,2,2,3,3,7,7,10,10,11,11,12,12],"right_children":[2,4,6,8,-1,-1,-1,10,-1,-1,12,14,16,-1,-1,-1,-1],"split_conditions":[-3.0159032E-1,4.0687948E-1,-1.8585877E0,6.65917E-1,-4.8001893E-2,2.1101996E-2,-5.30532E-2,-9.031911E-1,-4.185881E-2,-3.6130816E-2,-6.0923916E-1,-2.0310032E-1,9.643464E-1,-3.0705411E-2,1.2224386E-2,1.09365664E-1,1.9415297E-3],"split_indices":[2049,2048,1033,481,0,0,0,1787,0,0,559,488,601,0,0,0,0],"split_type":[0,0,0,0,0,0,0,0,0,0,0,0,0,0,0,0,0],"sum_hessian":[5.3084133E1,2.7472603E1,2.5611528E1,2.0928856E1,6.5437474E0,1.0001794E0,2.461135E1,1.7819029E1,3.109827E0,1.8421502E0,1.5976878E1,2.2373917E0,1.3739487E1,1.1946508E0,1.0427411E0,1.2369407E1,1.3700805E0],"tree_param":{"num_deleted":"0","num_feature":"2050","num_nodes":"17","size_leaf_vector":"1"}},{"base_weights":[8.235056E-2,2.4331762E-1,-5.1818814E-2,6.006575E-1,-5.6005184E-2,-2.562903E-1,7.87365E-1,2.6435652E-1,-5.092382E-2,1.762723E-2,-4.164951E-2,9.2056096E-1,-3.5147972E-2,5.5640304E-1,-4.5350242E-2,-2.9003888E-2,1.0172786E0,1.0459267E-1,2.9711429E-2,7.7498457E-3,1.084432E-1,8.9799166E-2,-4.5011427E-2],"categories":[],"categories_nodes":[],"categories_segments":[],"categories_sizes":[],"default_left":[0,0,0,0,0,0,0,0,0,0,0,0,0,0,0,0,0,0,0,0,0,0,0],"id":51,"left_children":[1,3,-1,5,7,9,11,13,-1,-1,-1,15,-1,17,-1,-1,19,-1,21,-1,-1,-1,-1],"loss_changes":[6.101559E0,5.320573E0,0E0,3.820365E0,4.173E0,4.060794E-1,3.177723E0,3.8065434E0,0E0,0E0,0E0,2.2997932E0,0E0,3.1917E0,0E0,0E0,9.305744E-1,0E0,3.3416026E0,0E0,0E0,0E0,0E0],"parents":[2147483647,0,0,1,1,3,3,4,4,5,5,6,6,7,7,11,11,13,13,16,16,18,18],"right_children":[2,4,-1,6,8,10,12,14,-1,-1,-1,16,-1,18,-1,-1,20,-1,22,-1,-1,-1,-1],"split_conditions":[6.62446E-1,-4.9209264E-1,-5.1818814E-2,-7.880334E-1,3.332252E-2,-8.7549525E-1,3.6828178E-1,2.6143155E-1,-5.092382E-2,1.762723E-2,-4.164951E-2,-1.0300306E0,-3.5147972E-2,-2.3078467E-1,-4.5350242E-2,-2.9003888E-2,-1.1610305E0,1.0459267E-1,-6.4645475E-1,7.7498457E-3,1.084432E-1,8.9799166E-2,-4.5011427E-2],"split_indices":[2049,1144,0,1891,65,992,484,1570,0,0,0,1102,0,324,0,0,1646,0,1801,0,0,0,0],"split_type":[0,0,0,0,0,0,0,0,0,0,0,0,0,0,0,0,0,0,0,0,0,0,0],"sum_hessian":[6.0815075E1,4.8429085E1,1.238599E1,2.1616266E1,2.681282E1,3.8004282E0,1.7815838E1,1.5953226E1,1.0859594E1,1.0000201E0,2.8004081E0,1.6121935E1,1.6939023E0,1.1499712E1,4.453514E0,1.0448525E0,1.5077083E1,5.449207E0,6.050505E0,1.1491627E0,1.392792E1,1.8433431E0,4.207162E0],"tree_param":{"num_deleted":"0","num_feature":"2050","num_nodes":"23","size_leaf_vector":"1"}},{"base_weights":[1.0667708E-1,-3.028771E-1,2.803712E-1,1.5272799E-1,-5.1714666E-2,-1.0458508E-1,5.1172304E-1,-4.3029122E-2,7.969559E-2,5.509486E-1,-3.3676228E-1,6.659414E-1,-2.9440016E-1,8.779951E-2,-3.0060312E-2,3.992341E-1,-5.149997E-2,8.5667187E-1,4.0247276E-2,-4.3099165E-2,1.4460941E-2,5.198854E-2,9.123766E-3,9.5057344E-1,-3.0135134E-2,7.46433E-2,-4.402903E-2,1.0852548E-1,9.616127E-3],"categories":[],"categories_nodes":[],"categories_segments":[],"categories_sizes":[],"default_left":[0,0,0,0,0,0,0,0,0,0,0,0,0,0,0,0,0,0,0,0,0,0,0,0,0,0,0,0,0],"id":52,"left_children":[1,3,5,7,-1,9,11,-1,-1,13,15,17,19,-1,-1,21,-1,23,25,-1,-1,-1,-1,27,-1,-1,-1,-1,-1],"loss_changes":[4.6613183E0,1.9961966E0,4.1229496E0,2.9923363E0,0E0,2.9225032E0,3.7652884E0,0E0,0E0,1.679433E0,2.0290399E0,2.8781462E0,3.8037613E-1,0E0,0E0,7.420093E-2,0E0,2.3150387E0,2.6195993E0,0E0,0E0,0E0,0E0,1.9090548E0,0E0,0E0,0E0,0E0,0E0],"parents":[2147483647,0,0,1,1,2,2,3,3,5,5,6,6,9,9,10,10,11,11,12,12,15,15,17,17,18,18,23,23],"right_children":[2,4,6,8,-1,10,12,-1,-1,14,16,18,20,-1,-1,22,-1,24,26,-1,-1,-1,-1,28,-1,-1,-1,-1,-1],"split_conditions":[-4.4902733E-1,-8.1075174E-1,-2.6249915E-1,1.191975E-2,-5.1714666E-2,-6.6200876E-1,8.970695E-1,-4.3029122E-2,7.969559E-2,8.3339435E-1,-1.3967804E0,3.2236204E-1,4.0319E-1,8.779951E-2,-3.0060312E-2,2.6442474E-1,-5.149997E-2,1.0667613E0,-8.112811E-1,-4.3099165E-2,1.4460941E-2,5.198854E-2,9.123766E-3,6.2999916E-1,-3.0135134E-2,7.46433E-2,-4.402903E-2,1.0852548E-1,9.616127E-3],"split_indices":[1618,1871,1040,563,0,49,1042,0,0,10,1393,881,1687,0,0,11,0,785,340,0,0,0,0,1061,0,0,0,0,0],"split_type":[0,0,0,0,0,0,0,0,0,0,0,0,0,0,0,0,0,0,0,0,0,0,0,0,0,0,0,0,0],"sum_hessian":[6.333207E1,1.8639101E1,4.4692966E1,6.0538683E0,1.2585234E1,1.6982685E1,2.7710281E1,3.3522243E0,2.7016442E0,4.0826592E0,1.2900026E1,2.340634E1,4.303941E0,2.9273355E0,1.1553235E0,2.2732375E0,1.0626789E1,1.7655315E1,5.7510257E0,3.2965348E0,1.0074058E0,1.1390706E0,1.1341668E0,1.6496769E1,1.1585459E0,2.1046934E0,3.6463325E0,1.4017074E1,2.479695E0],"tree_param":{"num_deleted":"0","num_feature":"2050","num_nodes":"29","size_leaf_vector":"1"}},{"base_weights":[1.09353706E-1,3.0441076E-1,-3.1777966E-1,-2.6943025E-1,5.475406E-1,3.2655525E-1,-5.2322567E-2,-5.0954875E-2,4.482819E-1,-4.0719774E-2,6.455793E-1,-3.9029956E-2,9.538864E-2,-3.0717093E-2,8.691554E-2,7.2686774E-1,-3.6864046E-2,-7.753105E-2,8.4939444E-1,4.6980422E-2,-4.0361106E-2,9.359794E-2,-3.3387005E-2],"categories":[],"categories_nodes":[],"categories_segments":[],"categories_sizes":[],"default_left":[0,0,0,0,0,0,0,0,0,0,0,0,0,0,0,0,0,0,0,0,0,0,0],"id":53,"left_children":[1,3,5,7,9,11,-1,-1,13,-1,15,-1,-1,-1,-1,17,-1,19,21,-1,-1,-1,-1],"loss_changes":[5.5115185E0,6.443591E0,2.9327683E0,2.6583686E0,3.2606697E0,2.9175866E0,0E0,0E0,1.5599945E0,0E0,2.694416E0,0E0,0E0,0E0,0E0,2.7845592E0,0E0,1.0039288E0,2.773573E0,0E0,0E0,0E0,0E0],"parents":[2147483647,0,0,1,1,2,2,3,3,4,4,5,5,8,8,10,10,15,15,17,17,18,18],"right_children":[2,4,6,8,10,12,-1,-1,14,-1,16,-1,-1,-1,-1,18,-1,20,22,-1,-1,-1,-1],"split_conditions":[2.4921836E-1,-3.1908807E-1,-8.012872E-1,9.8570186E-1,-1.045533E0,6.410849E-1,-5.2322567E-2,-5.0954875E-2,1.2966174E-1,-4.0719774E-2,1.655914E0,-3.9029956E-2,9.538864E-2,-3.0717093E-2,8.691554E-2,-7.226924E-1,-3.6864046E-2,-1.4657122E0,1.9505148E0,4.6980422E-2,-4.0361106E-2,9.359794E-2,-3.3387005E-2],"split_indices":[1275,2048,1855,1821,339,1230,0,0,110,0,63,0,0,0,0,460,0,366,1117,0,0,0,0],"split_type":[0,0,0,0,0,0,0,0,0,0,0,0,0,0,0,0,0,0,0,0,0,0,0],"sum_hessian":[6.3991405E1,4.4127308E1,1.98641E1,1.3100059E1,3.102725E1,4.6598954E0,1.5204204E1,1.0033334E1,3.0667243E0,2.5957167E0,2.8431532E1,2.35111E0,2.3087854E0,1.193891E0,1.8728334E0,2.6584167E1,1.8473653E0,3.5626009E0,2.3021566E1,1.1655036E0,2.397097E0,2.1646572E1,1.3749955E0],"tree_param":{"num_deleted":"0","num_feature":"2050","num_nodes":"23","size_leaf_vector":"1"}},{"base_weights":[-4.880395E-2,-5.2572753E-2,2.2842625E-1,-3.9689478E-1,4.3867013E-1,-4.9130328E-2,2.0955095E-2,6.16889E-1,-2.0288531E-1,-3.7543003E-2,7.347567E-1,6.2248707E-2,-4.6178084E-2,8.446756E-1,-3.4183808E-2,-3.0983869E-2,9.405933E-2],"categories":[],"categories_nodes":[],"categories_segments":[],"categories_sizes":[],"default_left":[0,0,0,0,0,0,0,0,0,0,0,0,0,0,0,0,0],"id":54,"left_children":[1,-1,3,5,7,-1,-1,9,11,-1,13,-1,-1,15,-1,-1,-1],"loss_changes":[7.5598865E0,0E0,4.9440427E0,6.55687E-1,3.2840066E0,0E0,0E0,2.8336678E0,1.7316904E0,0E0,2.6419106E0,0E0,0E0,2.3213835E0,0E0,0E0,0E0],"parents":[2147483647,0,0,2,2,3,3,4,4,7,7,8,8,10,10,13,13],"right_children":[2,-1,4,6,8,-1,-1,10,12,-1,14,-1,-1,16,-1,-1,-1],"split_conditions":[-1.01297796E-1,-5.2572753E-2,-3.38338E-1,1.3110074E0,-7.593334E-2,-4.9130328E-2,2.0955095E-2,-1.2271646E0,-1.0936303E0,-3.7543003E-2,8.850983E-1,6.2248707E-2,-4.6178084E-2,-1.1798702E0,-3.4183808E-2,-3.0983869E-2,9.405933E-2],"split_indices":[2048,0,2049,65,1020,0,0,717,24,0,995,0,0,1203,0,0,0],"split_type":[0,0,0,0,0,0,0,0,0,0,0,0,0,0,0,0,0],"sum_hessian":[5.5269325E1,1.998774E1,3.5281586E1,8.654129E0,2.6627457E1,7.652664E0,1.0014648E0,2.0868738E1,5.7587175E0,1.983619E0,1.888512E1,1.0397011E0,4.7190166E0,1.733106E1,1.554059E0,1.1583481E0,1.6172712E1],"tree_param":{"num_deleted":"0","num_feature":"2050","num_nodes":"17","size_leaf_vector":"1"}},{"base_weights":[-1.18446566E-1,-5.3152885E-2,3.6592144E-1,-2.6090524E-1,1.1018324E0,-4.4202957E-1,7.34835E-2,1.2330905E-1,4.7307024E-3,1.6166251E-2,-5.0844867E-2],"categories":[],"categories_nodes":[],"categories_segments":[],"categories_sizes":[],"default_left":[0,0,0,0,0,0,0,0,0,0,0],"id":55,"left_children":[1,-1,3,5,7,9,-1,-1,-1,-1,-1],"loss_changes":[1.0613312E1,0E0,1.1616859E1,2.8626883E0,1.5318632E0,5.8462405E-1,0E0,0E0,0E0,0E0,0E0],"parents":[2147483647,0,0,2,2,3,3,4,4,5,5],"right_children":[2,-1,4,6,8,10,-1,-1,-1,-1,-1],"split_conditions":[4.7947624E-1,-5.3152885E-2,5.796581E-1,1.7791814E0,4.1241354E-1,-8.876497E-1,7.34835E-2,1.2330905E-1,4.7307024E-3,1.6166251E-2,-5.0844867E-2],"split_indices":[2048,0,2049,330,872,612,0,0,0,0,0],"split_type":[0,0,0,0,0,0,0,0,0,0,0],"sum_hessian":[5.1072243E1,2.7511942E1,2.3560299E1,1.3071692E1,1.0488606E1,1.1530401E1,1.5412915E0,9.177E0,1.3116063E0,1.0007219E0,1.0529679E1],"tree_param":{"num_deleted":"0","num_feature":"2050","num_nodes":"11","size_leaf_vector":"1"}},{"base_weights":[-8.791079E-2,6.0538226E-1,-5.3059936E-2,9.400832E-1,-4.512055E-2,9.980508E-2,7.3931776E-3],"categories":[],"categories_nodes":[],"categories_segments":[],"categories_sizes":[],"default_left":[0,0,0,0,0,0,0],"id":56,"left_children":[1,3,-1,5,-1,-1,-1],"loss_changes":[1.6218607E1,7.7277393E0,0E0,7.2997665E-1,0E0,0E0,0E0],"parents":[2147483647,0,0,1,1,3,3],"right_children":[2,4,-1,6,-1,-1,-1],"split_conditions":[-8.452092E-1,-3.1908807E-1,-5.3059936E-2,1.6230675E0,-4.512055E-2,9.980508E-2,7.3931776E-3],"split_indices":[2049,2048,0,232,0,0,0],"split_type":[0,0,0,0,0,0,0],"sum_hessian":[5.079773E1,1.96525E1,3.1145227E1,1.5008457E1,4.644044E0,1.3924285E1,1.0841717E0],"tree_param":{"num_deleted":"0","num_feature":"2050","num_nodes":"7","size_leaf_vector":"1"}},{"base_weights":[-9.520324E-2,2.6113257E-1,-4.8842642E-1,4.906116E-1,-4.7351938E-2,-5.2588195E-2,2.09021E-2,6.526496E-1,-4.106402E-2,-3.5483923E-2,7.774673E-1,-8.994871E-2,9.007976E-1,-2.8782208E-2,1.5410231E-2,9.964027E-2,-6.3372403E-4],"categories":[],"categories_nodes":[],"categories_segments":[],"categories_sizes":[],"default_left":[0,0,0,0,0,0,0,0,0,0,0,0,0,0,0,0,0],"id":57,"left_children":[1,3,5,7,-1,-1,-1,9,-1,-1,11,13,15,-1,-1,-1,-1],"loss_changes":[7.4541035E0,4.966612E0,7.683768E-1,3.4646525E0,0E0,0E0,0E0,2.6575918E0,0E0,0E0,1.9173498E0,1.9144842E-1,1.317565E0,0E0,0E0,0E0,0E0],"parents":[2147483647,0,0,1,1,2,2,3,3,7,7,10,10,11,11,12,12],"right_children":[2,4,6,8,-1,-1,-1,10,-1,-1,12,14,16,-1,-1,-1,-1],"split_conditions":[-3.0159032E-1,4.0687948E-1,1.9854307E0,6.65917E-1,-4.7351938E-2,-5.2588195E-2,2.09021E-2,-9.9673575E-1,-4.106402E-2,-3.5483923E-2,-4.4553354E-1,-3.7396795E-1,8.745331E-1,-2.8782208E-2,1.5410231E-2,9.964027E-2,-6.3372403E-4],"split_indices":[2049,2048,1352,481,0,0,0,694,0,0,361,37,1257,0,0,0,0],"split_type":[0,0,0,0,0,0,0,0,0,0,0,0,0,0,0,0,0],"sum_hessian":[5.1287937E1,2.7082188E1,2.4205751E1,2.0889301E1,6.1928864E0,2.3205519E1,1.0002319E0,1.793972E1,2.9495795E0,1.7744081E0,1.6165314E1,2.0459871E0,1.4119326E1,1.030842E0,1.0151451E0,1.2684111E1,1.4352151E0],"tree_param":{"num_deleted":"0","num_feature":"2050","num_nodes":"17","size_leaf_vector":"1"}},{"base_weights":[7.800256E-2,2.3038024E-1,-5.122391E-2,5.570666E-1,-5.2705634E-2,-2.4957047E-1,7.2700036E-1,2.5147724E-1,-5.0287195E-2,1.7107507E-2,-4.09919E-2,8.459841E-1,-3.4284204E-2,5.201998E-1,-4.45645E-2,-2.8283244E-2,9.325319E-1,-1.16734385E-1,8.440249E-1,5.9750006E-3,9.948709E-2,4.934563E-2,-4.150016E-2,1.0493658E-1,-1.9886163E-3],"categories":[],"categories_nodes":[],"categories_segments":[],"categories_sizes":[],"default_left":[0,0,0,0,0,0,0,0,0,0,0,0,0,0,0,0,0,0,0,0,0,0,0,0,0],"id":58,"left_children":[1,3,-1,5,7,9,11,13,-1,-1,-1,15,-1,17,-1,-1,19,21,23,-1,-1,-1,-1,-1,-1],"loss_changes":[5.5479784E0,4.5308604E0,0E0,3.2908225E0,3.8224697E0,3.8657972E-1,2.7076263E0,3.3741477E0,0E0,0E0,0E0,1.961689E0,0E0,2.6908426E0,0E0,0E0,8.314829E-1,1.1356637E0,1.5205345E0,0E0,0E0,0E0,0E0,0E0,0E0],"parents":[2147483647,0,0,1,1,3,3,4,4,5,5,6,6,7,7,11,11,13,13,16,16,17,17,18,18],"right_children":[2,4,-1,6,8,10,12,14,-1,-1,-1,16,-1,18,-1,-1,20,22,24,-1,-1,-1,-1,-1,-1],"split_conditions":[6.62446E-1,-4.9209264E-1,-5.122391E-2,-7.880334E-1,3.332252E-2,-8.6926764E-1,3.6828178E-1,2.6143155E-1,-5.0287195E-2,1.7107507E-2,-4.09919E-2,-1.0300306E0,-3.4284204E-2,-1.6799697E-1,-4.45645E-2,-2.8283244E-2,-1.4360946E0,-1.0431609E0,5.101889E-1,5.9750006E-3,9.948709E-2,4.934563E-2,-4.150016E-2,1.0493658E-1,-1.9886163E-3],"split_indices":[2049,1144,0,1891,65,973,484,1570,0,0,0,1102,0,1692,0,0,1441,418,1316,0,0,0,0,0,0],"split_type":[0,0,0,0,0,0,0,0,0,0,0,0,0,0,0,0,0,0,0,0,0,0,0,0,0],"sum_hessian":[5.9373463E1,4.7675236E1,1.1698227E1,2.1683842E1,2.5991394E1,3.691672E0,1.799217E1,1.5774046E1,1.0217349E1,1.000402E0,2.69127E0,1.6379725E1,1.6124461E0,1.1568485E1,4.205561E0,1.0049199E0,1.5374804E1,4.1147213E0,7.4537635E0,1.1555065E0,1.4219297E1,1.136098E0,2.9786234E0,5.8488874E0,1.604876E0],"tree_param":{"num_deleted":"0","num_feature":"2050","num_nodes":"25","size_leaf_vector":"1"}},{"base_weights":[1.0259023E-1,-2.9474613E-1,2.6634398E-1,1.4703627E-1,-5.112004E-2,-4.6835996E-2,3.7342995E-1,-4.226197E-2,7.386663E-2,6.01267E-1,-7.146508E-3,7.4303776E-2,8.3239466E-1,5.4390305E-1,-4.962117E-2,-4.5442667E-2,6.764093E-1,-8.624194E-3,9.530741E-1,7.996619E-1,-3.354803E-2,1.1600808E-2,8.07023E-2,5.092375E-3,1.0320796E-1,1.1082614E-2,9.092343E-2],"categories":[],"categories_nodes":[],"categories_segments":[],"categories_sizes":[],"default_left":[0,0,0,0,0,0,0,0,0,0,0,0,0,0,0,0,0,0,0,0,0,0,0,0,0,0,0],"id":59,"left_children":[1,3,5,7,-1,-1,9,-1,-1,11,13,15,17,19,-1,-1,21,-1,23,25,-1,-1,-1,-1,-1,-1,-1],"loss_changes":[4.1737514E0,1.8771209E0,3.7229493E0,2.6623292E0,0E0,0E0,3.4654112E0,0E0,0E0,2.9806404E0,4.5646243E0,3.0815024E0,1.9963398E0,2.0608537E0,0E0,0E0,2.3401594E-1,0E0,1.04111E0,3.8757133E-1,0E0,0E0,0E0,0E0,0E0,0E0,0E0],"parents":[2147483647,0,0,1,1,2,2,3,3,6,6,9,9,10,10,11,11,12,12,13,13,16,16,18,18,19,19],"right_children":[2,4,6,8,-1,-1,10,-1,-1,12,14,16,18,20,-1,-1,22,-1,24,26,-1,-1,-1,-1,-1,-1,-1],"split_conditions":[-4.4902733E-1,-8.1075174E-1,-6.3806003E-1,1.191975E-2,-5.112004E-2,-4.6835996E-2,-2.5355782E-2,-4.226197E-2,7.386663E-2,-2.9525018E-1,-3.1330463E-1,